tree
version=v4
num_class=1
num_tree_per_iteration=1
label_index=0
max_feature_idx=12
objective=regression
feature_names=Column_0 Column_1 Column_2 Column_3 Column_4 Column_5 Column_6 Column_7 Column_8 Column_9 Column_10 Column_11 Column_12
feature_infos=[-1.5722901866741996:2.803062148824508] [-1.7778402708948993:1.7534354996660431] [-2.0983750865267981:1.9387498029874624] [-3.3856476620617713:2.3695141701854525] [-3.0409532819930876:1.5765507150788065] [-1.2496921423938661:10.912873565230917] [-2.5195163733460983:2.5562513135513285] [-4.5050720621786775:2.9952835819837862] [-2.0028696193578317:4.0100592478241968] [-0.67316099970092602:9.3035958118953506] [-2.1251902322562741:0.71992525640887051] [-1.0750668409797619:3.907410695266595] [-1.0697797653374159:3.7988070388945223]
tree_sizes=2674 2703 2716 2689 2712 2706 2711 2611 2688 2677 2507 2527 2598 2667 2657 2200 2270 2253 2424 1621 2260 2184 2320 1675 2244 2086 1927 2078 1582 1187 1507 1508 1365 1835 1756 1195 1354 1744 1746 1830 1284 1585 1276 1437 1443 955 1429 1265 1039 1433 2641 1684 1195 1769 877 1115 1503 1598 1217 880 1201 1289 1115 1604 1370 1845 1117 1514 1853 1297 1283 1362 1369 2320 1443 1357 1436 1128 1292 960 1122 1522 1515 1365 1449 1285 1524 1449 1290 1116 880 1693 1130 1289 1360 1289 1362 1369 1364 1358 1129 1115 1709 1125 1608 1123 962 1689 1362 1374 1118 1370 1208 808 1607 965 967 1292 1290 2094 1120 1039 1690 884 1940 1286 886 972 884 1863 2109 1439 1197 1853 1530 1130 1534 1041 887 1121 1125 1046 1443 1293 1529 1366 1045 1277 1451 812 1532 1519 1362 1204 1127 2033 1945 1541 1042 1200 1207 1624 2676 1449 1936 1122 2192 1444 1383 809 968 963 1046 1873 2261 1543 1203 1362 2098 1294 1045 1441 970 1202 1536 1535 1046 2107 1213 1140 967 1302 1122 1452 970 1289 1541 1538 1054 1047 896 1945 1781 968 1624 969 1857 1533 1361 1870 1204 1141 1370 1707 1215 1520 975 1122 893 1541 1534 1468 1358 1366 1953 2109 972 1598 1854 1528 1534 1047 1618 1549 885 977 1865 1761 889 1860 1445 1456 1053 1046 1045 1299 1201 1141 1626 1364 1621 1136 1537 1129 1306 1456 1284 1461 1049 1138 1287 893 1550 1700 1542 1209 1130 1281 1122 1609 971 1293 1145 1052 1533 1690 1123 1202 1698 1283 1293 1214 1553 1298 1142 1620 1546 976 1217 1309 1047 1050 889 887 891 972 1543 889 1224 881

Tree=0
num_leaves=31
num_cat=0
split_feature=5 5 8 1 6 4 1 11 0 3 0 11 6 3 7 6 2 8 1 4 8 1 4 7 0 8 7 1 9 1
split_gain=1.88149e+08 8.38299e+07 2.2194e+07 1.91359e+07 1.42574e+07 8.53142e+06 8.32556e+06 7.5031e+06 5.34812e+06 4.25814e+06 3.47542e+06 2.90146e+06 3.85763e+06 2.79142e+06 2.76272e+06 2.01436e+06 1.34592e+06 1.00871e+06 873551 863836 749383 709481 545654 516386 279714 203914 145827 124992 42375.6 59039.3
threshold=1.1043528332754471 -0.26884006919831888 -0.81078023047760395 -1.2877037800134696 1.9741678632190551 -0.8111329757147796 -0.060929405175739866 1.0000000180025095e-35 0.97999867570004662 1.0000000180025095e-35 -0.72152723254945073 0.28232598821589078 1.1825343707671629 -0.71608464348926304 1.0000000180025095e-35 -1.0992327545353502 1.0000000180025095e-35 -1.1406666022432013 0.32315416077812892 -1.4425865137758931 0.82365679327012919 -0.41061742790985911 -2.3897668208675635 1.0000000180025095e-35 -0.72152723254945073 0.31383240054147871 1.0000000180025095e-35 -0.37622188469010964 -0.63421971628329799 -0.25583748342098661
decision_type=2 2 2 2 2 2 2 2 2 2 2 2 2 2 2 2 2 2 2 2 2 2 2 2 2 2 2 2 2 2
left_child=1 5 10 -2 7 19 8 21 20 18 -3 12 -8 16 -9 -16 -12 -18 -7 22 -5 -4 -1 -11 -25 -26 -21 -28 -24 -30
right_child=3 2 4 6 -6 9 11 14 -10 23 13 -13 -14 -15 15 -17 17 -19 -20 26 -22 -23 28 24 25 -27 27 -29 29 -31
leaf_value=1062.6007214749131 1308.1600568929448 1136.6891362652148 1068.8318687051176 1146.1232396009852 1199.5507828090269 1119.4792098677722 1193.389953192629 1094.8628956389289 1217.2943927322763 1062.8919780926981 1186.6415723554155 1250.277988451573 1246.8281932815501 1201.6757055671872 1103.7935251879553 1129.6461936533149 1169.4318708139833 1144.152535604622 1095.1295085464853 1058.0816388964515 1173.1702393603186 1093.6816388958555 1044.1826073316386 1070.3805190234045 1079.3108046783004 1090.9545251327331 1063.8383870337489 1074.2685890459877 1045.1456480184331 1052.5584768684566
leaf_weight=29 22 29 27 21 22 34 35 32 26 23 24 36 22 30 35 217 38 27 26 20 20 20 38 25 53 21 27 20 22 21
leaf_count=29 22 29 27 21 22 34 35 32 26 23 24 36 22 30 35 217 38 27 26 20 20 20 38 25 53 21 27 20 22 21
internal_value=1128.34 1108.8 1135.23 1220.71 1121.6 1071.91 1208.69 1116.42 1181.82 1087.12 1167.73 1228.05 1214.02 1175.3 1122.54 1126.06 1166.4 1158.93 1108.93 1056.28 1159.32 1079.41 1050.83 1076.39 1079.53 1082.62 1065.23 1068.28 1046.62 1048.77
internal_weight=1042 860 501 182 353 359 160 331 67 182 148 93 57 119 284 252 89 65 60 177 41 47 110 122 99 74 67 47 81 43
internal_count=1042 860 501 182 353 359 160 331 67 182 148 93 57 119 284 252 89 65 60 177 41 47 110 122 99 74 67 47 81 43
is_linear=0
shrinkage=1


Tree=1
num_leaves=31
num_cat=0
split_feature=5 5 8 8 6 4 1 0 11 3 11 0 3 7 8 2 8 8 4 1 1 4 7 6 1 8 7 1 3 9
split_gain=1.524e+08 6.79023e+07 1.79772e+07 1.66131e+07 1.15485e+07 6.91045e+06 6.48716e+06 6.25773e+06 6.07751e+06 3.44909e+06 3.23585e+06 2.81509e+06 2.26105e+06 2.2378e+06 1.79121e+06 1.09019e+06 929409 817053 710696 707576 574679 420462 418273 245630 223490 144258 139683 98622.6 57459.4 27387.8
threshold=1.1043528332754471 -0.26884006919831888 -0.81078023047760395 1.9557668418293392 1.9741678632190551 -0.8111329757147796 -0.060929405175739866 0.97999867570004662 1.0000000180025095e-35 1.0000000180025095e-35 0.28232598821589078 -0.72152723254945073 -0.71608464348926304 1.0000000180025095e-35 1.0035948142331828 1.0000000180025095e-35 0.20886855497969756 -1.1406666022432013 -1.1663255908741561 0.32315416077812892 -0.41061742790985911 -2.3897668208675635 1.0000000180025095e-35 0.29776752626210662 -0.37048929415348475 0.74118520032873003 1.0000000180025095e-35 -0.45074556166623342 -1.5481562336936812 -0.5874901761821445
decision_type=2 2 2 2 2 2 2 2 2 2 2 2 2 2 2 2 2 2 2 2 2 2 2 2 2 2 2 2 2 2
left_child=1 5 11 6 8 18 7 25 20 19 16 -3 15 -10 -15 -13 -8 -17 21 -7 -4 -1 -11 24 -24 -2 -20 -28 -23 -30
right_child=3 2 4 -5 -6 9 10 -9 13 22 -12 12 -14 14 -16 17 -18 -19 26 -21 -22 28 23 -25 -26 -27 27 -29 29 -31
leaf_value=-59.169588075835136 15.465929231189547 7.5099825916619141 -53.561556554723666 146.16767910228057 64.085465864701703 -7.9789505453670735 56.707146455764772 85.548239707946777 -30.133633050322533 -58.907458297066071 109.73995183308919 52.467174784342447 65.997896474202477 -5.041015038798963 21.785883443270411 36.978443702898531 84.889091318303883 14.227042547861735 -63.236766204833991 -29.893682036262295 -31.196764221191405 -69.19761915940505 -53.924380711146767 -35.590852179894078 -42.54535938686795 27.332813034057622 -58.2568881225586 -48.655288729460345 -77.031556649043637 -72.721877034505212
leaf_weight=29 21 29 27 34 22 34 25 24 32 23 36 24 30 224 28 38 22 27 20 26 20 26 28 26 45 20 20 23 29 30
leaf_count=29 21 29 27 34 22 34 25 24 32 23 36 24 30 224 28 38 22 27 20 26 20 26 28 26 45 20 20 23 29 30
internal_value=2.68707e-07 -17.5932 6.19276 83.1328 -6.07274 -50.7876 68.6519 44.9938 -10.7358 -37.1054 87.1792 35.4476 42.256 -5.22345 -2.06025 34.2531 69.8987 27.5279 -64.8563 -17.4753 -44.0446 -69.5669 -46.7595 -43.9372 -46.9099 21.2547 -56.3325 -53.1211 -73.1142 -74.8402
internal_weight=1042 860 501 182 353 359 148 65 331 182 83 148 119 284 252 89 47 65 177 60 47 114 122 99 73 41 63 43 85 59
internal_count=1042 860 501 182 353 359 148 65 331 182 83 148 119 284 252 89 47 65 177 60 47 114 122 99 73 41 63 43 85 59
is_linear=0
shrinkage=0.1


Tree=2
num_leaves=31
num_cat=0
split_feature=5 5 2 1 8 4 1 11 0 1 6 3 6 11 10 3 4 1 0 4 1 1 4 7 0 8 7 1 1 6
split_gain=1.23444e+08 5.50008e+07 1.46677e+07 1.40385e+07 9.97356e+06 5.59747e+06 5.58906e+06 5.34082e+06 3.97091e+06 3.49455e+06 2.86918e+06 2.79377e+06 2.28231e+06 2.6882e+06 1.6851e+06 1.4026e+06 1.33915e+06 1.11062e+06 1.07914e+06 575664 573137 346186 340574 338801 234581 160508 113143 79884.3 51413 36019.6
threshold=1.1043528332754471 -0.26884006919831888 0.72761233613318432 -1.2877037800134696 -0.88575440587887611 -0.8111329757147796 -0.060929405175739866 1.0000000180025095e-35 1.0000000180025095e-35 -0.38768706576335948 0.99626766666083522 1.0000000180025095e-35 1.1825343707671629 0.28232598821589078 1.0000000180025095e-35 -0.71608464348926304 0.096581485248071267 -0.25583748342098661 -0.72152723254945073 -1.1663255908741561 0.32315416077812892 -0.46794333327610815 -2.3897668208675635 1.0000000180025095e-35 -0.72152723254945073 0.31383240054147871 1.0000000180025095e-35 -0.45074556166623342 1.2747641898578637 -0.54043264221636744
decision_type=2 2 2 2 2 2 2 2 2 2 2 2 2 2 2 2 2 2 2 2 2 2 2 2 2 2 2 2 2 2
left_child=1 5 4 -2 16 19 9 21 18 -5 14 20 13 -8 -9 -10 -3 -12 -4 22 -7 -6 -1 -13 -25 -26 -21 -28 29 -24
right_child=3 2 8 6 7 11 12 10 15 -11 17 23 -14 -15 -16 -17 -18 -19 -20 26 -22 -23 28 24 25 -27 27 -29 -30 -31
leaf_value=-53.252631351865574 149.71808933994987 22.974953567981721 1.4384204829180682 62.45224089308789 -49.087395804268972 -7.1810546426212092 51.473083081926625 -25.586719956831502 34.461857117925369 16.358440188703867 3.4090833223783052 -53.016712288234544 105.53236588881566 91.574423980712893 -5.44953017792281 63.958237898977181 56.380951184318178 34.753428754806521 27.312440910339355 -56.913085784912113 -26.904314187856826 -31.86151414871216 -68.793313529274684 -47.918319274902345 -39.645782528283462 -29.315380702699937 -52.431199340820314 -43.789759644218115 -61.369081573486326 -63.759581211635044
leaf_weight=29 22 28 27 38 28 34 35 55 28 29 26 23 26 32 170 38 21 20 40 20 26 20 44 25 53 21 20 23 20 21
leaf_count=29 22 28 27 38 28 34 35 55 28 29 26 23 26 32 170 38 21 20 40 20 26 20 44 25 53 21 20 23 20 21
internal_value=2.39271e-07 -15.8339 5.57349 74.8196 -4.71294 -45.7088 64.521 -11.1651 34.0352 42.5012 -5.7195 -33.3948 80.3847 70.626 -10.372 51.4446 37.2918 17.0371 16.8856 -58.3707 -15.7278 -41.9099 -62.6102 -42.0835 -39.5435 -36.7142 -50.6992 -47.809 -65.8028 -67.167
internal_weight=1042 860 501 182 368 359 160 319 133 67 271 182 93 67 225 66 49 46 67 177 60 48 114 122 99 74 63 43 85 65
internal_count=1042 860 501 182 368 359 160 319 133 67 271 182 93 67 225 66 49 46 67 177 60 48 114 122 99 74 63 43 85 65
is_linear=0
shrinkage=0.1


Tree=3
num_leaves=31
num_cat=0
split_feature=5 5 8 8 2 2 4 11 1 0 6 3 0 3 1 1 8 2 8 11 8 4 1 4 4 7 6 1 1 0
split_gain=9.99898e+07 4.45507e+07 1.19092e+07 1.17659e+07 8.25187e+06 4.69612e+06 4.53395e+06 4.22112e+06 2.86231e+06 5.19054e+06 2.41364e+06 2.26295e+06 1.92084e+06 1.65139e+06 1.45008e+06 899599 835713 799655 657262 639106 578961 471221 464241 319863 293523 274429 197417 185711 81646.6 37831.7
threshold=1.1043528332754471 -0.26884006919831888 -0.81078023047760395 1.9557668418293392 0.72761233613318432 0.72761233613318432 -0.8111329757147796 1.0000000180025095e-35 0.43207338097400211 0.97999867570004662 0.99626766666083522 1.0000000180025095e-35 -0.72152723254945073 -0.71608464348926304 -0.34182634147036023 -0.25583748342098661 -0.21098682726742679 1.0000000180025095e-35 -1.1406666022432013 0.28232598821589078 0.82365679327012919 -1.4425865137758931 0.32315416077812892 -0.37700866829776397 -2.3897668208675635 1.0000000180025095e-35 0.29776752626210662 -0.37048929415348475 -1.2246452841105955 0.73692354595011833
decision_type=2 2 2 2 2 2 2 2 2 2 2 2 2 2 2 2 2 2 2 2 2 2 2 2 2 2 2 2 2 2
left_child=1 6 12 5 7 8 21 23 9 20 14 22 -3 17 -9 -12 -6 -14 -19 -7 -2 24 -8 -4 -1 -13 27 -27 -23 -10
right_child=3 2 4 -5 16 19 11 10 29 -11 15 25 13 -15 -16 -17 -18 18 -20 -21 -22 28 -24 -25 -26 26 -28 -29 -30 -31
leaf_value=-47.927368269295528 -3.4948603063821793 5.7497158050537109 -47.37780029296875 120.3855635923498 23.347852277755738 71.688076435435903 -6.4629505227593818 -20.179960608695236 68.121584930419928 65.929320518787094 3.0681747436523441 -47.715042379628059 43.211151202519737 54.741355919837957 -3.4454925127548202 31.27808599472046 52.256551971435549 30.328228915365116 9.922492085562812 96.387375640869152 20.566757469177247 -50.75067072329314 -24.213881624661962 -30.819771848406113 -59.651369071301126 -44.648356955392018 -28.10660464213445 -34.275577892727327 -43.398490335724574 61.970833301544189
leaf_weight=29 20 29 20 34 20 22 34 84 20 26 26 23 24 30 135 20 20 38 27 20 20 23 26 28 81 28 26 45 44 20
leaf_count=29 20 29 20 34 20 22 34 84 20 26 26 23 24 30 135 20 20 38 27 20 20 23 26 28 81 28 26 45 44 20
internal_value=8.32098e-08 -14.2505 5.01614 67.3376 -4.96698 55.1509 -41.138 -10.4327 43.9382 31.1455 -5.49028 -30.0554 28.8272 34.4512 -9.86419 15.3334 37.8022 27.6118 21.852 83.4496 8.53595 -52.5336 -14.155 -37.719 -56.5605 -37.8752 -35.5892 -38.2542 -45.9224 65.0462
internal_weight=1042 860 501 182 353 148 359 313 106 66 265 182 148 119 219 46 40 89 65 42 40 177 60 48 110 122 99 73 67 40
internal_count=1042 860 501 182 353 148 359 313 106 66 265 182 148 119 219 46 40 89 65 42 40 177 60 48 110 122 99 73 67 40
is_linear=0
shrinkage=0.1


Tree=4
num_leaves=31
num_cat=0
split_feature=5 5 1 2 8 1 4 11 0 3 6 1 4 6 11 3 1 4 1 1 1 4 8 4 4 4 1 7 1 3
split_gain=8.09918e+07 3.6086e+07 1.0352e+07 9.80743e+06 6.46775e+06 3.7167e+06 3.6725e+06 3.49038e+06 2.90016e+06 2.31154e+06 1.96936e+06 2.60475e+06 1.8501e+06 1.69032e+06 2.00787e+06 1.67882e+06 1.20508e+06 1.06476e+06 1.00875e+06 760256 728976 453822 417166 381797 259089 224549 122565 91626.7 55856.2 45131
threshold=1.1043528332754471 -0.26884006919831888 -1.2877037800134696 0.72761233613318432 -0.88575440587887611 -0.060929405175739866 -0.8111329757147796 1.0000000180025095e-35 1.0000000180025095e-35 0.91338888732772205 0.85656763858108942 0.025059452873633727 1.3200227152414794 1.1825343707671629 0.28232598821589078 1.0000000180025095e-35 -0.34182634147036023 0.096581485248071267 0.89068062390399472 0.68430736458549812 -0.37622188469010964 1.0000000180025095e-35 -0.79578539539734949 -1.1663255908741561 -0.37700866829776397 -2.3897668208675635 0.30022379863162929 1.0000000180025095e-35 -0.45074556166623342 -1.5481562336936812
decision_type=2 2 2 2 2 2 2 2 2 2 2 2 2 2 2 2 2 2 2 2 2 2 2 2 2 2 2 2 2 2
left_child=1 6 -2 4 17 9 23 24 19 20 16 -12 15 14 -7 22 -9 -3 -10 -5 -4 26 -8 25 -6 -1 -17 -25 -29 -27
right_child=2 3 5 8 7 13 12 10 18 -11 11 -13 -14 -15 -16 21 -18 -19 -20 -21 -22 -23 -24 27 -26 29 -28 28 -30 -31
leaf_value=-43.134630716258087 124.92084475430575 17.163100273268565 34.474535169601438 23.317131523404804 -42.640019760131842 39.745571302686422 2.5732827377319336 -21.601826117353944 31.720949857299395 59.494427925089134 -1.9863932035971381 38.236190723237534 -53.558995852263081 86.33851794096141 74.402966353297231 -38.696806892188818 -4.5935291696982139 46.950704983302529 56.630331894447067 1.9911888599395753 8.6244239608446769 -19.68189458506448 -15.627782981535967 -46.624603271484375 -27.737795257568362 -49.85412321824294 -30.711394357681275 -42.29681716918946 -35.070934262483021 -54.85486113984706
leaf_weight=29 22 28 20 35 20 35 20 65 37 23 69 21 23 26 32 37 116 21 29 32 24 28 34 20 28 26 40 20 23 59
leaf_count=29 22 28 20 35 20 35 20 65 37 23 69 21 23 26 32 37 116 21 29 32 24 28 34 20 28 26 40 20 23 59
internal_value=9.83023e-08 -12.8255 60.6038 4.51452 -3.89673 51.7603 -37.0242 -9.09256 27.7878 33.8037 -4.69029 7.39888 -27.0498 64.6967 56.2984 -23.2152 -10.7015 29.9292 42.666 13.1316 20.3745 -30.5841 -8.88665 -47.2803 -33.9471 -50.7329 -34.5485 -41.0327 -38.4318 -53.3252
internal_weight=1042 860 182 501 368 160 359 319 133 67 271 90 182 93 67 159 181 49 66 67 44 105 54 177 48 114 77 63 43 85
internal_count=1042 860 182 501 368 160 359 319 133 67 271 90 182 93 67 159 181 49 66 67 44 105 54 177 48 114 77 63 43 85
is_linear=0
shrinkage=0.1


Tree=5
num_leaves=31
num_cat=0
split_feature=5 5 1 2 8 11 4 8 10 0 1 4 3 8 8 1 1 6 3 4 0 4 1 8 3 4 4 8 1 7
split_gain=6.56033e+07 2.92297e+07 8.38515e+06 7.94402e+06 5.23888e+06 3.22174e+06 3.1004e+06 3.09798e+06 3.05224e+06 2.34913e+06 2.33375e+06 1.86062e+06 1.48352e+06 1.31792e+06 1.29859e+06 1.10459e+06 1.54762e+06 1.05324e+06 865015 862457 732843 528955 379895 291110 272831 234959 181885 126029 91543.5 73695.4
threshold=1.1043528332754471 -0.26884006919831888 -1.2877037800134696 0.72761233613318432 -0.88575440587887611 0.28232598821589078 -0.63353666813509146 1.3409786035389073 1.0000000180025095e-35 1.0000000180025095e-35 -1.144389016597847 1.3200227152414794 0.35867449385811007 0.87613871605102001 -0.93073891111963947 -0.0093360903461157125 -0.50807146703248252 -1.0992327545353502 -0.71608464348926304 0.096581485248071267 -0.72152723254945073 -1.1663255908741561 -0.34755893200698512 -0.68332413229544109 0.35867449385811007 1.0000000180025095e-35 -2.3897668208675635 0.20886855497969756 0.71870290780524748 1.0000000180025095e-35
decision_type=2 2 2 2 2 2 2 2 2 2 2 2 2 2 2 2 2 2 2 2 2 2 2 2 2 2 2 2 2 2
left_child=1 6 -2 4 19 7 21 15 13 20 -10 12 23 22 -7 16 -4 -12 -11 -3 -5 26 -6 -8 -23 27 -1 -14 -17 -26
right_child=2 3 5 9 8 14 11 -9 10 18 17 -13 25 -15 -16 28 -18 -19 -20 -21 -22 24 -24 -25 29 -27 -28 -29 -30 -31
leaf_value=-38.821168728532463 112.42876184636896 15.446790599822998 39.066401527041478 -0.91119338141547324 -34.544906729840214 53.785943504001786 6.7677912712097168 67.690548748440207 -34.135856132507328 25.062550653730121 -17.066896666013278 -48.203096539041269 -34.607495515242867 -1.6537332721378495 88.627057342529298 45.808881435394291 2.870324672151495 4.51948201146429 48.226521537178442 42.255634126209081 20.410952384471894 -25.234674816131594 -20.14141756942108 -9.9018828717145055 -43.55537963867188 -17.713705365998404 -47.992701469870177 -24.7685364818573 36.4610243732279 -36.53124870688228
leaf_weight=29 22 28 21 27 47 23 20 27 20 28 26 23 23 23 20 20 27 173 38 21 40 20 30 22 20 28 85 30 22 59
leaf_count=29 22 28 21 27 47 23 20 27 20 28 26 23 23 23 20 20 27 173 38 21 40 20 30 22 20 28 85 30 22 59
internal_value=-4.37168e-08 -11.5429 54.5435 4.06307 -3.50706 46.5842 -33.3217 37.9817 -8.18331 25.009 -1.57345 -22.097 -17.2154 -22.6589 69.9911 29.069 18.7061 1.69915 38.3994 26.9363 11.8184 -41.0157 -28.9332 -1.96394 -35.6681 -25.1236 -45.6596 -29.0383 40.9124 -38.3095
internal_weight=1042 860 182 501 368 160 359 117 319 133 219 146 123 100 43 90 48 199 66 49 67 213 77 42 99 81 114 53 42 79
internal_count=1042 860 182 501 368 160 359 117 319 133 219 146 123 100 43 90 48 199 66 49 67 213 77 42 99 81 114 53 42 79
is_linear=0
shrinkage=0.1


Tree=6
num_leaves=31
num_cat=0
split_feature=5 5 8 11 4 2 2 8 4 6 1 8 1 4 1 3 2 0 6 1 0 4 10 8 8 8 1 11 4 7
split_gain=5.31387e+07 2.36761e+07 6.97355e+06 6.55447e+06 4.79994e+06 3.89024e+06 3.46772e+06 3.00852e+06 2.51132e+06 1.91183e+06 2.46093e+06 2.13837e+06 1.84104e+06 1.5071e+06 1.36036e+06 1.20165e+06 1.05981e+06 1.0061e+06 840742 557356 466601 433509 243023 235799 202107 201875 188421 173354 157740 58586
threshold=1.1043528332754471 -0.26884006919831888 1.9557668418293392 1.1684578054949519 0.37284240814980857 0.72761233613318432 0.72761233613318432 -0.25597133250818976 -0.63353666813509146 1.1359676947405808 0.55819037277975003 0.82365679327012919 0.74163326995174705 1.3200227152414794 -0.34182634147036023 0.35867449385811007 1.0000000180025095e-35 -0.72152723254945073 -0.074765881950548563 0.89068062390399472 1.0000000180025095e-35 -1.4425865137758931 -0.70263248792370181 -0.68332413229544109 -0.40591968331073425 0.37381174086249619 0.85628508068424525 -0.76492070493209041 1.0000000180025095e-35 1.0000000180025095e-35
decision_type=2 2 2 2 2 2 2 2 2 2 2 2 2 2 2 2 2 2 2 2 2 2 2 2 2 2 2 2 2 2
left_child=1 8 6 4 7 12 9 17 21 10 -2 -11 16 15 22 23 -6 -3 -19 -7 -8 27 -9 -10 -23 28 -16 -1 -17 -26
right_child=2 3 -4 -5 5 19 20 14 13 11 -12 -13 -14 -15 26 25 -18 18 -20 -21 -22 24 -24 -25 29 -27 -28 -29 -30 -31
leaf_value=-43.93481953269557 0.60253550988786364 -14.340273320674896 89.928833978316376 43.582096180162935 7.520316140434959 24.542631409619307 52.969898586273189 -35.446482109301023 6.0910124063491828 66.970457392153534 41.471992155221791 23.849068417756456 23.742859694451997 -43.382786891771403 -6.5342430781435086 -29.289122121762006 -11.088511835319409 21.892912057522807 0.85040288360751404 43.870829544067391 74.074204392866662 -23.498690596080962 -23.215862706303596 -8.9116946431723516 -39.199840698242191 -13.892612962722779 -17.697446623302643 -35.344341076121616 -18.69922666874799 -32.975504032258065
leaf_weight=76 34 24 34 38 55 37 20 33 20 23 26 23 33 23 54 39 69 31 49 25 22 21 32 22 20 20 21 34 22 62
leaf_count=76 34 24 34 38 55 37 20 33 20 23 26 23 33 23 54 39 69 31 49 25 22 21 32 22 20 20 21 34 22 62
internal_value=-3.61804e-08 -10.3886 49.0891 3.65676 0.379955 11.1273 39.707 -9.2662 -29.9896 30.0718 18.3126 45.4098 2.75175 -19.8873 -18.8367 -15.4939 -2.8346 3.61715 9.00438 32.3363 64.0245 -36.9141 -29.4253 -1.76755 -32.2519 -22.6112 -9.65994 -41.2796 -25.4698 -34.4936
internal_weight=1042 860 182 501 463 219 148 244 359 106 60 46 157 146 140 123 124 104 80 62 42 213 65 42 103 81 75 110 61 82
internal_count=1042 860 182 501 463 219 148 244 359 106 60 46 157 146 140 123 124 104 80 62 42 213 65 42 103 81 75 110 61 82
is_linear=0
shrinkage=0.1


Tree=7
num_leaves=30
num_cat=0
split_feature=5 5 1 11 6 8 11 4 8 4 4 1 0 8 3 4 2 6 4 8 3 8 4 4 1 9 1 1 11
split_gain=4.30424e+07 1.91776e+07 6.09035e+06 5.30912e+06 3.99115e+06 4.14077e+06 2.44984e+06 2.03417e+06 2.02267e+06 1.70697e+06 1.22075e+06 1.1766e+06 1.14916e+06 1.08904e+06 973338 852305 732830 1.5662e+06 355175 190998 188352 163519 136295 127769 52766.6 41006.8 44409.2 22868.4 20942
threshold=1.1043528332754471 -0.26884006919831888 -1.2877037800134696 1.1684578054949519 1.8344678351393096 -0.81078023047760395 0.28232598821589078 -0.63353666813509146 1.3409786035389073 -0.37700866829776397 1.3200227152414794 -1.3049015516233442 -0.72152723254945073 -0.93073891111963947 0.35867449385811007 0.37284240814980857 0.72761233613318432 1.1359676947405808 -1.1663255908741561 -0.68332413229544109 0.35867449385811007 0.37381174086249619 -2.3897668208675635 1.0000000180025095e-35 -0.37048929415348475 -0.63421971628329799 -0.25583748342098661 -0.26730266449423645 1.0000000180025095e-35
decision_type=2 2 2 2 2 2 2 2 2 2 2 2 2 2 2 2 2 2 2 2 2 2 2 2 2 2 2 2 2
left_child=1 7 -2 4 5 12 8 18 16 -7 14 -11 -3 -8 19 -14 17 -4 22 -9 -20 23 -1 -16 28 27 -27 -24 -22
right_child=2 3 6 -5 -6 9 13 10 -10 11 -12 -13 15 -15 21 -17 -18 -19 20 -21 24 -23 25 -25 -26 26 -28 -29 -30
leaf_value=-31.108392544450432 93.512823625044405 -5.9621362870389767 4.5018875222939716 39.223886347444434 40.050592994689943 -29.899367916968561 42.967962745998221 5.4819115328788754 53.900809186476252 -24.726148932320733 -39.044508229131281 -3.1751118274559653 10.657530656814576 74.874291343688967 -26.360209851387221 29.980848895368123 39.05049634660994 34.893639106750491 -20.1718021774292 -8.0205251542004685 -35.766755371093751 -12.503351411819459 -38.986343727111823 -16.829304131594572 -28.21087938944499 -40.188949030095884 -33.904497063678249 -43.768434371948246 -31.342256927490237
leaf_weight=29 22 22 39 38 24 31 23 20 27 28 23 266 50 20 39 42 21 30 20 22 20 20 20 22 36 22 23 20 23
leaf_count=29 22 22 39 38 24 31 23 20 27 28 23 266 50 20 39 42 21 30 20 22 20 20 20 22 36 22 23 20 23
internal_value=3.52022e-08 -9.34976 44.1802 3.29109 0.341959 -1.8289 37.397 -26.9906 29.8954 -7.5809 -17.8986 -5.22759 14.5693 57.8081 -13.9445 19.479 22.6938 17.7157 -33.2227 -1.59079 -28.8408 -20.3501 -37.0281 -22.9228 -31.0354 -39.0477 -36.9769 -41.3774 -33.4002
internal_weight=1042 860 182 501 463 439 160 359 117 325 146 294 114 43 123 92 90 69 213 42 99 81 114 61 79 85 45 40 43
internal_count=1042 860 182 501 463 439 160 359 117 325 146 294 114 43 123 92 90 69 213 42 99 81 114 61 79 85 45 40 43
is_linear=0
shrinkage=0.1


Tree=8
num_leaves=31
num_cat=0
split_feature=5 5 1 10 7 1 11 2 4 4 6 1 1 4 6 3 4 0 4 8 8 3 4 1 11 7 1 9 1 1
split_gain=3.48643e+07 1.55339e+07 4.93319e+06 4.51009e+06 3.33362e+06 2.80985e+06 2.71206e+06 2.12264e+06 1.77674e+06 1.64768e+06 1.48534e+06 1.37998e+06 1.29277e+06 988810 977368 788404 502781 397915 287692 214895 154708 152566 140497 124734 113119 46883.4 29915 23794.9 32980.6 6476.28
threshold=1.1043528332754471 -0.26884006919831888 -1.2877037800134696 1.0000000180025095e-35 1.5889668987033245 -1.1902497408908461 1.1684578054949519 0.72761233613318432 0.45177410040744775 -0.63353666813509146 1.1359676947405808 0.55819037277975003 -0.3188959793238606 1.3200227152414794 1.5085011029532363 0.35867449385811007 0.68856917718036548 1.0000000180025095e-35 -1.1663255908741561 0.52376009166504078 -0.68332413229544109 0.35867449385811007 1.0000000180025095e-35 -0.43354779005635874 -0.76492070493209041 1.0000000180025095e-35 -0.37048929415348475 -0.5874901761821445 -0.46794333327610815 -0.58259514400860624
decision_type=2 2 2 2 2 2 2 2 2 2 2 2 2 2 2 2 2 2 2 2 2 2 2 2 2 2 2 2 2 2
left_child=1 9 -2 12 5 -5 8 10 -7 18 11 -4 19 15 -12 20 -14 -9 24 29 -11 -20 23 -17 27 -23 -27 -1 -29 -3
right_child=2 3 7 4 -6 6 -8 17 -10 13 14 -13 16 -15 -16 22 -18 -19 21 -21 -22 25 -24 -25 -26 26 -28 28 -30 -31
leaf_value=-37.384861511654321 84.161541331898093 -27.205027008056643 2.9767060702187678 -29.147963627901945 40.179661140441901 -2.9638389475643638 35.919322035389563 42.754739990234377 12.379633155116787 4.9337194672226907 49.559139835473268 33.391169228920567 -10.719659029736238 -35.140057588660198 23.037290660540265 -27.100931340997871 8.9601882877803991 62.243914378773084 -18.154621872901917 -15.849261550903321 -7.2184724352576515 -32.116029968261721 -12.585179322106498 -17.255432144288093 -28.781040542190141 -28.653541675690686 -24.144229493822372 -36.629457164946061 -30.955362396240236 -29.719402676536927
leaf_weight=36 22 20 35 22 30 148 31 20 154 20 33 26 34 23 24 22 21 22 20 20 22 20 28 31 37 31 28 21 20 21
leaf_count=36 22 20 35 22 30 148 31 20 154 20 33 26 34 23 24 22 21 22 20 20 22 20 28 31 37 31 28 21 20 21
internal_value=-4.43059e-08 -8.41479 39.7622 2.96198 8.17 5.46496 7.75169 33.6573 4.86032 -24.2916 26.7856 15.9402 -14.3233 -16.1087 38.392 -12.55 -3.20554 52.9634 -29.9004 -24.3474 -1.43171 -25.9567 -18.3151 -21.3422 -33.3253 -27.9319 -26.5135 -35.5088 -33.8616 -28.4929
internal_weight=1042 860 182 501 385 355 333 160 302 359 118 61 116 146 57 123 55 42 213 61 42 99 81 53 114 79 59 77 41 41
internal_count=1042 860 182 501 385 355 333 160 302 359 118 61 116 146 57 123 55 42 213 61 42 99 81 53 114 79 59 77 41 41
is_linear=0
shrinkage=0.1


Tree=9
num_leaves=31
num_cat=0
split_feature=5 5 8 2 2 2 10 0 1 0 8 4 6 4 1 3 3 1 6 0 1 4 4 8 8 1 1 8 4 4
split_gain=2.82401e+07 1.25824e+07 4.37982e+06 3.7362e+06 3.04331e+06 2.18805e+06 1.49684e+06 1.49109e+06 1.37627e+06 2.55008e+06 1.36246e+06 1.33462e+06 906320 800936 686167 662999 638607 603493 630563 322311 258029 233031 218592 180656 138050 125417 155258 125313 101457 84641.9
threshold=1.1043528332754471 -0.26884006919831888 1.9557668418293392 0.72761233613318432 1.0000000180025095e-35 0.72761233613318432 -0.70263248792370181 1.0000000180025095e-35 0.43207338097400211 0.97999867570004662 -0.79578539539734949 -0.63353666813509146 1.1359676947405808 1.3200227152414794 0.68430736458549812 -0.71608464348926304 0.35867449385811007 -1.1673193787443465 -0.40073261413662181 1.0000000180025095e-35 -0.34755893200698512 -1.1663255908741561 -0.10074774539602678 0.87613871605102001 0.37381174086249619 -0.37048929415348475 0.57538814438962482 -0.68332413229544109 -2.3897668208675635 1.0000000180025095e-35
decision_type=2 2 2 2 2 2 2 2 2 2 2 2 2 2 2 2 2 2 2 2 2 2 2 2 2 2 2 2 2 2
left_child=1 11 5 4 10 8 22 14 9 20 -3 21 23 16 -5 -9 27 -8 -19 -7 -2 28 -6 -12 29 -23 -27 -13 -1 -18
right_child=2 3 -4 7 6 19 17 15 -10 -11 12 13 -14 -15 -16 -17 24 18 -20 -21 -22 25 -24 -25 -26 26 -28 -29 -30 -31
leaf_value=-24.885340907655916 -12.052895973920823 27.336759546925038 68.151581068599924 16.197928742000038 -26.141232316744954 38.47926536560059 -20.15076602458954 16.022532339606965 35.333558049201962 36.207075823270358 -5.7331866632808337 4.4403476762771605 21.414140414649793 -31.626051828135616 -4.0622525393962858 36.302050199006736 -21.645217565389782 -13.884974138664479 1.7520736257908709 56.01952349922874 4.010393810272217 -27.104810726896247 -15.267228296067982 5.2031748128973918 -9.273760747909547 -13.065489695072174 -24.297005891799927 -6.4966259089383218 -31.735253058040843 -13.887855772538618
leaf_weight=29 20 34 34 35 38 20 20 28 40 26 44 20 22 23 32 38 39 33 118 22 20 47 36 23 20 20 32 22 85 22
leaf_count=29 20 34 34 35 38 20 20 28 40 26 44 20 22 23 32 38 39 33 118 22 20 47 36 23 20 20 32 22 85 22
internal_value=-5.23629e-08 -7.57331 35.786 2.66578 -2.52578 28.3506 -8.96923 17.0304 20.6969 11.8263 10.3087 -21.8624 3.80364 -14.4979 6.52142 27.6986 -11.295 -3.82734 -1.66529 47.667 -4.02125 -26.9104 -20.8512 -1.97891 -16.4836 -23.361 -19.9772 -1.28854 -29.9927 -18.8475
internal_weight=1042 860 182 501 368 148 245 133 106 66 123 359 89 146 67 66 123 171 151 42 40 213 74 67 81 99 52 42 114 61
internal_count=1042 860 182 501 368 148 245 133 106 66 123 359 89 146 67 66 123 171 151 42 40 213 74 67 81 99 52 42 114 61
is_linear=0
shrinkage=0.1


Tree=10
num_leaves=29
num_cat=0
split_feature=5 5 1 11 6 8 11 8 4 6 8 1 0 4 1 1 4 3 9 3 11 8 6 4 1 8 10 1
split_gain=2.28745e+07 1.01918e+07 3.66173e+06 3.23867e+06 2.80996e+06 2.47308e+06 1.72597e+06 1.47906e+06 1.08104e+06 1.06973e+06 985250 940194 834265 648758 583553 582403 527865 517272 196922 284592 150967 111820 107261 68560 67865.8 62472.9 42101.2 20034.2
threshold=1.1043528332754471 -0.26884006919831888 -1.2877037800134696 1.1684578054949519 1.9741678632190551 -0.81078023047760395 0.28232598821589078 1.0485793194739461 -0.63353666813509146 0.85656763858108942 -0.93073891111963947 -1.144389016597847 -0.72152723254945073 1.3200227152414794 -0.0093360903461157125 -0.1067901294687391 0.37284240814980857 0.35867449385811007 -0.63421971628329799 -0.71608464348926304 -0.76492070493209041 0.37381174086249619 -0.074765881950548563 1.0000000180025095e-35 -0.46794333327610815 1.7683314033261588 -0.70263248792370181 -0.26730266449423645
decision_type=2 2 2 2 2 2 2 2 2 2 2 2 2 2 2 2 2 2 2 2 2 2 2 2 2 2 2 2
left_child=1 8 -2 4 5 12 7 14 18 11 -8 -7 -3 17 -4 -11 -14 22 27 -20 24 23 -10 -19 -21 -9 -22 -1
right_child=2 3 6 -5 -6 9 10 25 13 15 -12 -13 16 -15 -16 -17 -18 21 19 20 26 -23 -24 -25 -26 -27 -28 -29
leaf_value=-28.304754900932313 70.45953341397373 -6.5010807866399949 3.6304063815819592 30.46407549757707 34.169728453262991 -24.910363926607019 29.964665369365527 32.149670964195614 -6.459881749153138 -1.970801763287906 60.312558841705325 -6.973554198329265 8.2335603981018064 -28.463446418098783 21.155627852992009 16.040741300582887 23.440633101690384 -19.480695563096269 -11.5391921043396 -30.036172133225662 -22.924990621294295 -8.346384510993957 3.6586689949035645 -12.499070323597302 -24.445852711735938 39.958988494873047 -17.819833006858826 -32.780713195800779
leaf_weight=20 22 22 38 38 23 34 23 21 20 58 20 208 50 23 38 26 42 39 20 39 35 20 22 22 49 20 30 20
leaf_count=20 22 22 38 38 23 34 23 21 20 58 20 208 50 23 38 26 42 39 20 39 35 20 22 22 49 20 30 20
internal_value=4.45605e-08 -6.81598 32.2074 2.3992 0.0958223 -1.68531 26.9477 20.6512 -19.6762 -6.11871 44.08 -9.4936 10.9926 -13.0481 12.393 3.6042 15.1759 -10.1655 -24.2193 -22.7573 -24.2237 -14.8352 -1.15969 -16.9627 -26.9234 35.9591 -20.5688 -30.5427
internal_weight=1042 860 182 501 463 440 160 117 359 326 43 242 114 146 76 84 92 123 213 173 153 81 42 61 88 41 65 40
internal_count=1042 860 182 501 463 440 160 117 359 326 43 242 114 146 76 84 92 123 213 173 153 81 42 61 88 41 65 40
is_linear=0
shrinkage=0.1


Tree=11
num_leaves=29
num_cat=0
split_feature=5 5 8 10 7 1 2 11 4 1 0 4 1 4 3 0 0 1 8 9 7 1 1 8 8 7 11 0
split_gain=1.85283e+07 8.25533e+06 3.02965e+06 2.76615e+06 2.34955e+06 1.75255e+06 1.72596e+06 1.69739e+06 1.16824e+06 1.00247e+06 2.03673e+06 875643 810242 525494 418990 383386 276555 217698 173741 169309 152439 104986 149768 102159 98491.2 80771.2 64531.7 50119
threshold=1.1043528332754471 -0.26884006919831888 1.9557668418293392 1.0000000180025095e-35 1.5889668987033245 -1.1902497408908461 0.72761233613318432 1.1684578054949519 0.45177410040744775 0.43207338097400211 0.97999867570004662 -0.63353666813509146 -0.3188959793238606 1.3200227152414794 0.35867449385811007 1.0000000180025095e-35 1.0000000180025095e-35 -0.34755893200698512 0.43379108118351395 -0.5874901761821445 1.0000000180025095e-35 -0.56539737239873145 1.0626583400027421 -0.40591968331073425 -0.68332413229544109 1.0000000180025095e-35 -0.76492070493209041 0.73692354595011833
decision_type=2 2 2 2 2 2 2 2 2 2 2 2 2 2 2 2 2 2 2 2 2 2 2 2 2 2 2 2
left_child=1 11 6 12 5 -5 9 8 -7 10 17 19 18 14 24 -14 -8 -2 -3 25 -21 -16 -23 -22 -13 -1 -25 -11
right_child=2 3 -4 4 -6 7 16 -9 -10 27 -12 13 15 -15 21 -17 -18 -19 -20 20 23 22 -24 26 -26 -27 -28 -29
leaf_value=-21.592633590698242 -13.105926635265352 -23.913316388811385 55.905205087100768 -23.368815135955813 33.110924048423769 -2.858889122428121 31.447834329605104 28.056862043565321 9.5827674431073202 32.036579418182377 30.223259038191578 4.0351885795593265 -10.197636151313782 -25.617102034195611 -18.045767809549968 6.5698835525512695 47.695436078851877 1.6486620581150058 -13.121483424993663 -26.204683292273319 -12.01447328567505 -5.2766799857983226 -16.116888336181642 -22.227854571960592 -5.6609089201146912 -29.601493173487047 -17.2922446342615 24.957102966308597
leaf_weight=20 20 35 34 22 30 148 20 31 154 20 26 20 30 23 30 25 22 20 26 33 20 26 25 54 22 34 52 20
leaf_count=20 20 35 34 22 30 148 20 31 154 20 26 20 30 23 30 25 22 20 26 33 20 26 25 54 22 34 52 20
internal_value=-1.65314e-09 -6.13438 28.9866 2.15928 6.23794 3.96698 22.8026 5.77295 3.48553 16.005 8.43423 -17.7085 -11.3776 -11.7433 -9.14898 -2.57604 39.9585 -5.72863 -19.3135 -21.7974 -20.1544 -13.3517 -10.5905 -18.5698 -1.04372 -26.6352 -19.8066 28.4968
internal_weight=1042 860 182 501 385 355 148 333 302 106 66 359 116 146 123 55 42 40 61 213 159 81 51 126 42 54 106 40
internal_count=1042 860 182 501 385 355 148 333 302 106 66 359 116 146 123 55 42 40 61 213 159 81 51 126 42 54 106 40
is_linear=0
shrinkage=0.1


Tree=12
num_leaves=30
num_cat=0
split_feature=5 5 4 6 10 7 8 7 1 1 8 8 4 1 0 10 0 3 8 4 4 4 1 8 11 8 4 11 1
split_gain=1.50079e+07 6.68682e+06 2.86178e+06 5.42685e+06 2.24058e+06 1.90724e+06 1.5497e+06 1.42484e+06 1.56255e+06 1.51063e+06 1.31606e+06 792491 712158 656350 483667 444034 316134 234721 192224 189046 163178 146985 121818 111971 73942.2 31075.1 29697.8 25765.4 9695.12
threshold=1.1043528332754471 -0.26884006919831888 0.60963748492272629 1.1825343707671629 1.0000000180025095e-35 0.65142244318301656 0.10390470941791642 1.0000000180025095e-35 -1.1558541976710968 -1.075597930158348 1.3409786035389073 0.52376009166504078 -0.37700866829776397 -0.34182634147036023 0.25077328645026198 -0.70263248792370181 1.0000000180025095e-35 0.35867449385811007 0.74118520032873003 0.92536425395328314 0.45177410040744775 -1.4425865137758931 0.30022379863162929 -0.48089385871200646 1.0000000180025095e-35 1.0000000180025095e-35 -1.7583132828064503 -0.76492070493209041 0.65277811663406105
decision_type=2 2 2 2 2 2 2 2 2 2 2 2 2 2 2 2 2 2 2 2 2 2 2 2 2 2 2 2 2
left_child=1 12 11 6 13 7 14 -6 -9 -10 -5 -2 21 20 -4 19 -15 -17 -8 22 -3 24 -14 -23 26 -25 -1 -27 -28
right_child=2 4 3 10 5 -7 18 8 9 -11 -12 -13 15 16 -16 17 -18 -19 -20 -21 -22 23 -24 25 -26 27 28 -29 -30
leaf_value=-27.027562459309895 18.395387386140367 -21.764944152037302 21.847330413818362 41.982575225830082 -21.148305147344416 28.990911155939102 -1.5068756648472377 -20.009944617229962 31.101588714122773 4.9746146944207208 76.103012855236358 -8.2050191402435306 -16.230218656439529 -9.201085318096224 41.9410373200541 2.4765317471822108 5.9128951492309572 -10.50490057193316 11.868840685757725 -23.476919784545899 -11.119863831003507 -10.184093084335329 -7.7831137180328369 -21.641997727103856 -18.104368181526663 -19.28511028289795 -21.63238999048869 -15.169735882200044 -24.336055900937037
leaf_weight=21 21 36 25 20 22 32 21 23 24 284 26 24 38 31 23 30 25 26 22 20 24 20 31 23 32 32 36 29 21
leaf_count=21 21 36 25 20 22 32 21 23 24 284 26 24 38 31 23 30 25 26 22 20 24 20 31 23 32 32 36 29 21
internal_value=-6.46956e-09 -5.52094 26.088 33.2747 1.94335 5.61415 19.1241 3.49501 5.13293 7.01048 61.268 4.2085 -15.9377 -10.2399 31.4756 -10.5269 -2.45377 -3.55056 5.33651 -14.9164 -17.5069 -19.6039 -12.4351 -16.9086 -22.1522 -18.5097 -23.8128 -17.3286 -22.6285
internal_weight=1042 860 182 137 501 385 91 353 331 308 46 45 359 116 48 145 56 56 43 89 60 214 69 104 110 84 78 61 57
internal_count=1042 860 182 137 501 385 91 353 331 308 46 45 359 116 48 145 56 56 43 89 60 214 69 104 110 84 78 61 57
is_linear=0
shrinkage=0.1


Tree=13
num_leaves=31
num_cat=0
split_feature=10 6 11 6 6 8 6 3 9 4 4 4 1 4 4 4 8 9 8 9 8 4 3 1 0 8 11 0 1 4
split_gain=1.21862e+07 8.6274e+06 4.74668e+06 3.52204e+06 5.10411e+06 2.37661e+06 2.34612e+06 2.30508e+06 1.06794e+06 713639 641126 587188 492853 419749 495772 563859 418276 388135 385325 338228 183154 169718 134056 103107 100274 87339.2 54423.6 37865.2 31752.4 23780
threshold=1.0000000180025095e-35 1.1359676947405808 0.28232598821589078 2.0673012152722192 1.3222343988469085 -0.97572341636040261 1.1825343707671629 -0.71608464348926304 -0.19028908532233965 -0.21914528378248557 -0.37700866829776397 -0.21914528378248557 1.5212655829327344 -0.63353666813509146 1.1226934845973813 0.68856917718036548 0.43379108118351395 0.17965310714512572 -1.1616593713555574 0.30426521408153512 0.84689878764452375 0.68856917718036548 -0.71608464348926304 0.31168897970487908 1.0000000180025095e-35 1.0000000180025095e-35 -0.76492070493209041 0.73692354595011833 -0.1985115780547376 -1.5412511290979423
decision_type=2 2 2 2 2 2 2 2 2 2 2 2 2 2 2 2 2 2 2 2 2 2 2 2 2 2 2 2 2 2
left_child=13 2 5 4 6 9 -3 18 10 -2 27 -12 21 22 15 17 -17 23 -4 -10 -21 -11 -1 -15 -19 29 28 -7 -27 -24
right_child=1 3 7 -5 -6 8 -8 -9 19 12 11 -13 -14 14 -16 16 -18 24 -20 20 -22 -23 25 -25 -26 26 -28 -29 -30 -31
leaf_value=-12.428103749892292 -4.0760914757138211 23.647058704921179 21.546273619395038 66.979072205916694 -4.8188759828225161 -15.651480268239977 62.109073770457307 48.952180523784079 12.559171679924276 15.871064620547825 7.9748718297040018 -7.9001829459036106 4.2807564362235686 -10.690975246429444 -23.618014935084755 -8.5900148308795448 11.183624229431153 -22.45811207212251 4.3298916559952962 -3.7530237941741946 6.1304157221317297 26.799512624740601 -24.471121609595514 -2.0871480538294866 -14.453757959253648 -21.353920004102918 -14.675974369049072 -20.895269303094775 -16.384380493164063 -20.048339805603028
leaf_weight=34 21 35 26 23 39 40 29 27 29 27 27 170 23 30 28 23 20 29 26 50 30 30 31 26 34 36 38 21 20 20
leaf_count=34 21 35 26 23 39 40 29 27 29 27 27 170 23 30 28 23 20 29 26 50 30 30 31 26 34 36 38 21 20 20
internal_value=4.28959e-08 8.00766 2.5736 31.5984 23.6978 -1.25369 41.0752 25.2467 -4.99208 12.3303 -8.49833 -5.72441 16.637 -14.6048 -11.3311 -9.20744 0.607027 -12.7538 12.9381 3.30713 -0.046734 21.6229 -18.0796 -6.69634 -18.1383 -19.4047 -17.597 -17.4567 -19.5791 -22.7367
internal_weight=1042 673 547 126 103 468 64 79 367 101 258 197 80 369 190 162 43 119 52 109 80 57 179 56 63 145 94 61 56 51
internal_count=1042 673 547 126 103 468 64 79 367 101 258 197 80 369 190 162 43 119 52 109 80 57 179 56 63 145 94 61 56 51
is_linear=0
shrinkage=0.1


Tree=14
num_leaves=31
num_cat=0
split_feature=5 10 8 6 8 2 9 6 6 1 6 8 1 6 0 8 6 8 1 1 11 6 1 9 1 4 7 8 11 11
split_gain=9.93066e+06 4.3194e+06 2.12707e+06 1.93298e+06 2.06952e+06 1.30775e+06 818723 802469 1.14312e+06 740230 670361 1.00457e+06 651539 435798 415808 317484 329773 230963 226553 186260 185088 176528 174299 158591 107771 51975.4 36728.7 27059.5 26176.8 15424.7
threshold=1.0000000180025095e-35 -0.70263248792370181 1.9557668418293392 1.8344678351393096 -0.97572341636040261 0.72761233613318432 -0.53102531522658392 -1.0992327545353502 -0.074765881950548563 1.0397279778562425 1.1359676947405808 0.82365679327012919 -0.3188959793238606 -0.44729929016320369 1.4661489351999031 -0.75829830769671336 0.94970099063425328 -1.1106769320826924 -0.37048929415348475 0.36614858980281567 0.28232598821589078 -0.86639937440244064 0.92507616712374408 0.30426521408153512 0.57538814438962482 -0.92953051410123844 -1.2236664678575992 0.10390470941791642 -0.76492070493209041 1.0000000180025095e-35
decision_type=2 2 2 2 2 2 2 2 2 2 2 2 2 2 2 2 2 2 2 2 2 2 2 2 2 2 2 2 2 2
left_child=1 13 5 4 9 10 24 23 -9 14 12 -12 -2 21 17 -15 18 -3 28 -20 -7 25 -14 -8 -6 -1 -23 -28 -17 -27
right_child=2 3 -4 -5 6 20 7 8 -10 -11 11 -13 22 15 -16 16 -18 -19 19 -21 -22 26 -24 -25 -26 29 27 -29 -30 -31
leaf_value=-17.37020009358724 -11.27848662421817 26.56702848672867 41.992323427730142 31.659588427543639 -10.906503093242646 23.702705979347229 -17.090399221940473 13.348444227088581 -3.0518643378255206 -0.12248802185058594 32.738095118522644 4.0954361875851957 4.686868578812172 1.6575753498077395 4.0751718425750729 -20.133914871215822 -1.8834050051097213 14.353771178126335 -4.8008056563300059 -14.331386052007261 36.557958512079146 -17.029025483131409 16.649433844430106 -6.1293384833769373 -19.57417638794734 -9.2628690624237073 -23.091611171904066 -18.695226614815848 -16.108411434718544 -13.190299625396728
leaf_weight=21 21 32 36 20 32 24 33 55 187 39 25 24 29 20 20 30 29 30 37 46 21 24 21 22 26 20 42 21 35 20
leaf_count=21 21 32 36 20 32 24 33 55 187 39 25 24 29 20 20 30 29 30 37 46 21 24 21 22 26 20 42 21 35 20
internal_value=8.60463e-08 -4.7726 19.9689 1.20439 -0.0752417 15.1638 -3.92479 -1.80257 0.675479 11.2189 9.7121 18.709 3.50294 -13.3656 16.6129 -10.285 -11.6345 20.6574 -13.5452 -10.0828 29.7018 -17.4661 9.71115 -12.706 -14.792 -13.3416 -20.358 -21.6261 -17.9663 -11.2266
internal_weight=1042 841 201 496 476 165 355 297 242 121 120 49 71 345 82 197 177 62 148 83 45 148 50 55 58 61 87 63 65 40
internal_count=1042 841 201 496 476 165 355 297 242 121 120 49 71 345 82 197 177 62 148 83 45 148 50 55 58 61 87 63 65 40
is_linear=0
shrinkage=0.1


Tree=15
num_leaves=25
num_cat=0
split_feature=4 6 8 4 11 10 4 8 1 1 8 4 1 3 1 4 4 10 0 3 5 8 9 9
split_gain=8.30356e+06 5.42849e+06 3.90053e+06 2.54785e+06 1.83139e+06 1.34765e+06 1.27953e+06 931788 907171 1.26518e+06 785272 628811 439856 382035 349534 326354 333625 249780 130221 113038 114996 100780 82429.5 13306.3
threshold=0.25444486976334973 2.1604345673253831 1.9557668418293392 1.1226934845973813 0.28232598821589078 1.0000000180025095e-35 -0.57433789894186205 -0.81078023047760395 1.5327307640059844 0.86775026175749514 -0.84826731817823997 -0.21914528378248557 -0.38768706576335948 0.91338888732772205 -0.043731633565865145 0.17551317750571049 -0.10074774539602678 1.0000000180025095e-35 1.0000000180025095e-35 -1.5481562336936812 -0.26884006919831888 -1.1106769320826924 -0.5874901761821445 -0.19028908532233965
decision_type=2 2 2 2 2 2 2 2 2 2 2 2 2 2 2 2 2 2 2 2 2 2 2 2
left_child=4 2 3 5 6 18 13 21 9 -7 -5 17 -12 19 -14 16 -13 -9 -2 -1 22 -8 -21 -17
right_child=1 -3 -4 10 -6 8 7 11 -10 -11 12 15 14 -15 -16 23 -18 -19 -20 20 -22 -23 -24 -25
leaf_value=-10.168394071405585 -11.26649700610534 60.994340839385984 38.348659699214132 7.7459473991394052 16.126106872558594 9.7579855863026221 9.5477490369011377 -5.1892315236004922 -6.0133923034667971 26.691217663530576 -26.435931119051844 -10.754694841604318 -1.435132744220587 -1.1932800579071046 -18.170576814810435 -20.190476838350296 0.67434082898226655 9.4206420135498057 -1.1114257122789111 -20.263907127380374 -22.308439001543771 1.6641813708889872 -14.49490279143965 -16.542696008682253
leaf_weight=33 23 20 38 20 30 175 34 22 25 59 22 113 26 20 24 20 33 25 28 30 29 31 142 20
leaf_count=33 23 20 38 20 30 175 34 22 25 59 22 113 26 20 24 20 33 25 28 30 29 31 142 20
internal_value=-5.57149e-09 10.0411 7.72503 4.83026 -7.93626 9.16724 -9.244 -4.79908 12.093 14.0275 -9.78347 -7.75252 -14.6527 -14.4589 -9.46815 -10.3639 -8.17142 2.58198 -5.69116 -15.5927 -16.4833 5.78789 -15.5011 -18.3666
internal_weight=1042 460 440 402 582 310 552 298 259 234 92 233 72 254 50 186 146 47 51 234 201 65 172 40
internal_count=1042 460 440 402 582 310 552 298 259 234 92 233 72 254 50 186 146 47 51 234 201 65 172 40
is_linear=0
shrinkage=0.1


Tree=16
num_leaves=26
num_cat=0
split_feature=10 6 9 1 11 8 1 9 1 9 7 0 1 1 0 4 4 8 8 8 1 8 8 6 4
split_gain=6.75479e+06 5.13812e+06 3.96662e+06 2.0507e+06 1.61912e+06 968550 899587 1.67119e+06 1.0835e+06 890501 652849 567917 251252 545504 362210 224849 192565 229420 122212 111989 58409.7 45828.2 42476.9 41133.5 18790.8
threshold=1.0000000180025095e-35 2.0673012152722192 -0.19028908532233965 -1.1214586544513472 1.1684578054949519 -0.97572341636040261 1.5785914882989835 0.30426521408153512 0.36614858980281567 0.6664191498654749 1.0000000180025095e-35 -0.72152723254945073 -0.2157093496646123 0.3346193418513787 -0.72152723254945073 -0.21914528378248557 -0.21914528378248557 -1.1856511074839646 0.10390470941791642 0.87613871605102001 1.3836834100537367 -0.84826731817823997 1.0000000180025095e-35 -1.4251994867214235 -0.73220128345714042
decision_type=2 2 2 2 2 2 2 2 2 2 2 2 2 2 2 2 2 2 2 2 2 2 2 2 2
left_child=12 2 4 -4 5 16 7 8 -5 -9 -7 -12 19 18 20 -16 -2 -18 -14 21 -15 -1 -23 -24 -25
right_child=1 -3 3 6 -6 10 -8 9 -10 -11 11 -13 13 14 15 -17 17 -19 -20 -21 -22 22 23 24 -26
leaf_value=-9.6057187545299527 -3.1183618164062503 52.4119850822117 37.760662798727715 11.385437992640904 19.235798490047458 -21.906902327360932 -9.340954807826451 2.6834762863204129 35.340423188558439 24.977875318981354 -16.549143539330899 -3.3630011556605206 -3.7506856315665775 -23.075748943147204 -12.181849930187067 -0.033052906036376957 0.08516140146688983 12.916981869622283 5.7096857157620526 -7.0896851906409637 -15.70255177237771 -17.817787501391244 -9.9062417734753012 -12.984003329277039 -15.764015226594864
leaf_weight=20 20 23 31 35 32 27 21 122 41 21 39 201 36 21 39 25 22 38 22 26 22 34 22 40 62
leaf_count=20 20 23 31 35 32 27 21 122 41 21 39 201 36 21 39 25 22 38 22 26 22 34 22 40 62
internal_value=1.03779e-08 5.9618 4.31818 13.5564 -2.28752 -4.27238 10.43 12.3259 24.3085 5.95748 -7.16429 -5.50575 -10.8734 -7.97198 -12.2053 -7.43623 5.3794 8.21198 -0.162269 -13.2202 -19.3034 -14.1156 -14.6865 -13.828 -14.6738
internal_weight=1042 673 650 271 379 347 240 219 76 143 267 240 369 165 107 64 80 60 58 204 43 178 158 124 102
internal_count=1042 673 650 271 379 347 240 219 76 143 267 240 369 165 107 64 80 60 58 204 43 178 158 124 102
is_linear=0
shrinkage=0.1


Tree=17
num_leaves=26
num_cat=0
split_feature=4 6 8 4 11 8 4 1 2 3 4 8 8 4 1 3 4 1 1 1 0 3 5 9 9
split_gain=5.66315e+06 3.66331e+06 2.82831e+06 1.89608e+06 1.24535e+06 976903 891371 873935 780305 741848 768284 684586 584724 513745 294569 285853 270453 277725 232103 189733 88258.8 84797.5 81579.3 59126.1 8942.67
threshold=0.25444486976334973 2.1604345673253831 1.9557668418293392 1.1226934845973813 0.28232598821589078 1.0000000180025095e-35 -0.37700866829776397 1.5327307640059844 -0.88723761967251979 0.91338888732772205 0.80696671556682431 -0.81078023047760395 -0.84826731817823997 -0.21914528378248557 -0.38768706576335948 0.91338888732772205 0.17551317750571049 -0.33036116039711039 -0.043731633565865145 0.57538814438962482 0.73692354595011833 -1.5481562336936812 -0.26884006919831888 -0.5874901761821445 -0.19028908532233965
decision_type=2 2 2 2 2 2 2 2 2 2 2 2 2 2 2 2 2 2 2 2 2 2 2 2 2
left_child=4 2 3 5 6 7 15 8 -2 10 -7 20 -5 19 -14 21 17 -15 -16 -13 -8 -1 23 -23 -18
right_child=1 -3 -4 12 -6 9 11 -9 -10 -11 -12 13 14 16 18 -17 24 -19 -20 -21 -22 22 -24 -25 -26
leaf_value=-8.224870161576705 31.27758876866308 50.149444561004643 32.4668042785243 6.4443295097351072 13.28822686513265 -8.3349415488865066 8.594660146120523 -4.7023855946280744 12.513739209828225 15.096532281239829 7.1373838146527611 8.413479646046957 -22.526473305442117 -12.132851505279541 -2.0949342461732718 -0.47479580402374266 -17.536823406219483 -3.2197616264224056 -15.732372929652534 -4.437131085395813 1.0312755037237096 -16.873224153518677 -18.412522618424507 -11.987272799015045 -14.546392817497253
leaf_weight=33 29 20 38 20 30 69 36 22 94 36 60 27 22 58 26 20 20 88 24 20 27 30 31 142 20
leaf_count=33 29 20 38 20 30 69 36 22 94 36 60 27 22 58 26 20 20 88 24 20 27 30 31 142 20
internal_value=6.00623e-10 8.29235 6.38976 3.92476 -6.55409 7.66612 -7.63248 13.6544 16.9377 2.40368 -1.13851 -3.89539 -8.68197 -6.39608 -12.8837 -11.9535 -8.7565 -6.76058 -8.6409 2.94513 5.35321 -12.9263 -13.6905 -12.8395 -16.0416
internal_weight=1042 460 440 402 582 310 552 145 123 165 129 296 92 233 72 256 186 146 50 47 63 236 203 172 40
internal_count=1042 460 440 402 582 310 552 145 123 165 129 296 92 233 72 256 186 146 50 47 63 236 203 172 40
is_linear=0
shrinkage=0.1


Tree=18
num_leaves=28
num_cat=0
split_feature=5 10 4 6 7 7 1 1 8 8 9 6 8 0 6 8 8 4 6 6 7 1 4 7 8 1 11
split_gain=4.64894e+06 1.91461e+06 1.7324e+06 2.71671e+06 1.17498e+06 1.00029e+06 867271 1.7019e+06 843698 756902 690484 603041 340462 274595 205949 217835 186579 102133 93993.4 87688.8 70277.6 52379.1 36565 19657.9 24951 12887.5 12730.8
threshold=1.0000000180025095e-35 -0.70263248792370181 0.60963748492272629 1.1825343707671629 1.5889668987033245 1.0000000180025095e-35 -1.1558541976710968 -1.075597930158348 0.10390470941791642 1.3409786035389073 -0.47650751844190492 0.99626766666083522 0.58373943198605838 0.25077328645026198 -0.44729929016320369 -0.75829830769671336 0.4187962461032595 -0.10074774539602678 -0.77326602234927688 -0.35416593811003988 1.0000000180025095e-35 -0.37048929415348475 -0.92953051410123844 -1.2236664678575992 0.10390470941791642 0.69003995512212291 1.0000000180025095e-35
decision_type=2 2 2 2 2 2 2 2 2 2 2 2 2 2 2 2 2 2 2 2 2 2 2 2 2 2 2
left_child=1 14 11 8 5 -3 19 -8 13 -5 -9 -2 -10 -4 18 -16 20 -18 22 -7 -17 -22 -1 -20 25 -25 -24
right_child=2 4 3 9 -6 6 7 10 12 -11 -12 -13 -14 -15 15 16 17 -19 23 -21 21 -23 26 24 -26 -27 -28
leaf_value=-12.111847374655985 7.8528820136497757 -16.897387842450822 12.511832443237305 24.76787952423096 18.111974477767944 -8.395357773303985 25.459122940589644 -9.9268951841763098 -8.0309991744431581 50.643879237541789 2.172436621695458 -13.576356148719789 8.1291294395923615 27.652089898482615 3.0236750507354735 -14.58886862534743 -7.3486983465111777 1.9765786501268547 -11.515057969093323 -17.64743623165857 -11.449149389045184 -6.8919636417607792 -5.2522408008575443 -17.940233091874557 -11.978641242980958 -14.432860107421874 -8.8202601051330571
leaf_weight=22 29 35 25 20 36 20 29 56 22 26 299 24 32 23 20 26 23 24 24 21 43 61 20 22 20 20 20
leaf_count=22 29 35 25 20 36 20 29 56 22 26 299 24 32 23 20 26 23 24 24 21 43 61 20 22 20 20 20
internal_value=2.45283e-08 -3.26545 13.6629 19.2185 0.713883 -0.647706 0.690503 2.16658 10.12 39.3934 0.26381 -1.85092 1.54537 19.7665 -8.98646 -6.86874 -7.98653 -2.58685 -11.8053 -13.1342 -9.93872 -8.77618 -8.83727 -13.9451 -14.8857 -16.2701 -7.03625
internal_weight=1042 841 201 148 496 460 425 384 102 46 355 53 54 48 345 197 177 47 148 41 130 104 62 86 62 42 40
internal_count=1042 841 201 148 496 460 425 384 102 46 355 53 54 48 345 197 177 47 148 41 130 104 62 86 62 42 40
is_linear=0
shrinkage=0.1


Tree=19
num_leaves=18
num_cat=0
split_feature=6 11 3 2 8 6 4 7 0 7 0 6 8 8 3 8 1
split_gain=4.14225e+06 3.61187e+06 2.23834e+06 2.2076e+06 1.31799e+06 1.07013e+06 1.16534e+06 955467 608079 589020 549788 356613 335898 322181 311474 147101 41372.2
threshold=2.0673012152722192 0.28232598821589078 -0.71608464348926304 -0.88723761967251979 -1.2906149530457458 1.1359676947405808 0.60963748492272629 1.5889668987033245 -0.72152723254945073 1.0000000180025095e-35 1.0000000180025095e-35 1.1825343707671629 -1.2156407776444735 -0.97572341636040261 0.91338888732772205 -0.57086286919353313 -0.37048929415348475
decision_type=2 2 2 2 2 2 2 2 2 2 2 2 2 2 2 2 2
left_child=1 3 12 5 -5 13 -7 8 15 -10 -4 -8 -3 -1 16 -6 -15
right_child=-2 2 10 4 7 6 11 -9 9 -11 -12 -13 -14 14 -16 -17 -18
leaf_value=9.5842997137705481 39.413443351479685 14.076960986593495 23.714566583633424 17.309149932861327 -19.847303998028792 -1.7432946988514493 14.96298191868342 10.607734794001425 -13.988711426709152 -4.3281035959373266 47.162127759456638 31.227077205692019 -1.4798146220615933 -7.8123277711868289 8.5119752287864685 -11.624427151679994 -3.2244077414797063
leaf_weight=30 26 23 20 24 27 28 26 31 74 429 20 28 35 30 22 112 57
leaf_count=30 26 23 20 24 27 28 26 31 74 429 20 28 35 30 22 112 57
internal_value=5.45852e-08 -1.00861 17.2399 -2.95671 -5.71804 5.7521 14.812 -6.53922 -7.36719 -5.74935 35.4383 23.3962 4.68925 0.40742 -2.11833 -13.2217 -4.80645
internal_weight=1042 1016 98 918 697 221 82 673 642 503 40 54 58 139 109 139 87
internal_count=1042 1016 98 918 697 221 82 673 642 503 40 54 58 139 109 139 87
is_linear=0
shrinkage=0.1


Tree=20
num_leaves=26
num_cat=0
split_feature=11 4 7 4 7 6 4 8 4 8 1 4 1 1 7 3 5 1 9 1 3 9 5 8 5
split_gain=3.59549e+06 2.56589e+06 2.67776e+06 1.75136e+06 914858 838651 855561 660743 530264 513478 338969 417059 316068 205298 191153 186018 142045 123573 109092 79822.6 68652.5 178324 54806.4 39226.5 6430.96
threshold=3.2629511917909144 0.25444486976334973 0.65142244318301656 1.0832276384685617 1.0000000180025095e-35 1.1359676947405808 0.60963748492272629 -1.2006459425642191 -0.49540620668422281 -0.10602298170564568 1.0397279778562425 0.057115639119251653 -1.138656426061222 -0.38768706576335948 1.0000000180025095e-35 0.91338888732772205 -0.6611808984765376 0.42060819990075232 -0.19028908532233965 0.28875861755837945 -0.71608464348926304 -0.63421971628329799 -0.26884006919831888 -0.18099715710691788 -0.6611808984765376
decision_type=2 2 2 2 2 2 2 2 2 2 2 2 2 2 2 2 2 2 2 2 2 2 2 2 2
left_child=1 8 3 4 -3 7 -7 -6 15 10 11 12 -10 -5 -11 20 -16 -18 -15 -20 21 -1 23 -22 -23
right_child=-2 2 -4 13 5 6 -8 -9 9 14 -12 -13 -14 18 16 -17 17 -19 19 -21 22 24 -24 -25 -26
leaf_value=-14.2235493850708 31.984244111005001 -14.240577974319459 39.586894248780752 -16.771952144916241 20.572968305240977 -0.35712490463256841 21.153943480572231 2.2196925413542692 -4.9068561553955083 -14.207305783238906 -8.3943078454335538 -9.2224392804232505 8.4642355828815052 -11.793945984218432 0.19529197130884446 0.57001371622085573 -9.6920785020609372 -0.79814614795503169 0.9303785681724549 -7.7985540235042583 -11.948400334958677 -1.3908382368087768 -14.862831719716391 -8.6525065260742782 -3.9267721700668332
leaf_weight=20 34 20 21 26 22 25 71 181 22 29 30 22 90 23 35 20 61 21 22 20 54 20 24 109 20
leaf_count=20 34 20 21 26 22 25 71 181 22 29 30 22 90 23 35 20 61 21 22 20 54 20 24 109 20
internal_value=1.93686e-08 -1.07883 4.75882 2.97494 6.46571 7.85074 15.5521 4.20872 -5.43937 -2.62596 1.21407 3.3652 5.83777 -9.26192 -6.93941 -8.70587 -5.13797 -7.41436 -6.2579 -3.22626 -9.45696 -6.51372 -10.4013 -9.7444 -2.65881
internal_weight=1042 1008 431 410 319 299 96 203 577 310 164 134 112 91 146 267 117 82 65 42 247 60 187 163 40
internal_count=1042 1008 431 410 319 299 96 203 577 310 164 134 112 91 146 267 117 82 65 42 247 60 187 163 40
is_linear=0
shrinkage=0.1


Tree=21
num_leaves=25
num_cat=0
split_feature=11 6 10 9 9 1 8 7 0 7 6 2 0 1 8 1 5 1 11 1 1 8 8 6
split_gain=2.91235e+06 2.09454e+06 1.7479e+06 1.35799e+06 644401 1.06004e+06 604834 600134 577925 583844 458650 422666 112068 236972 295431 120380 102948 93759.2 106728 72753.4 66073.8 52274.3 29673.3 3565.86
threshold=3.2629511917909144 2.0673012152722192 1.0000000180025095e-35 -0.19028908532233965 0.30426521408153512 1.5212655829327344 3.215332988570712 1.5889668987033245 -0.72152723254945073 1.0000000180025095e-35 1.3222343988469085 1.0000000180025095e-35 -0.72152723254945073 -0.17271492063992552 0.26884789530071534 0.25722936960694248 -0.6611808984765376 -1.075597930158348 1.0000000180025095e-35 1.3091597330776128 -1.2246452841105955 -0.54087319903302422 0.52376009166504078 -0.35416593811003988
decision_type=2 2 2 2 2 2 2 2 2 2 2 2 2 2 2 2 2 2 2 2 2 2 2 2
left_child=1 2 12 7 5 11 10 8 21 -10 -6 -5 15 17 16 20 -15 18 -14 -17 23 -4 -19 -1
right_child=-2 -3 3 4 6 -7 -8 -9 9 -11 -12 -13 13 14 -16 19 -18 22 -20 -21 -22 -23 -24 -25
leaf_value=-8.4735228633880606 28.785819771710567 29.546001555702901 -16.269275217470916 31.653630646792323 3.5573777047210728 -4.9997197476300332 19.711793475151065 11.589606844145678 -16.164544574737548 -0.17011217423750247 -12.503251255126228 14.801187133270762 -8.8985354221228388 -7.0359574938406713 8.3153248083023801 -18.286773509979248 1.2314795422554017 -9.4288561838865288 -0.13430037498474121 -10.194922254562378 -2.5947931072928689 -10.096535218463226 -13.73533940792084 -10.361870841979981
leaf_weight=20 34 22 23 22 116 22 20 29 25 262 21 46 33 61 21 20 20 80 24 25 22 34 20 20
leaf_count=20 34 22 23 22 116 22 20 29 25 262 21 46 33 61 21 20 20 80 24 25 22 34 20 20
internal_value=2.22316e-08 -0.97095 -1.65186 1.58307 7.33427 14.0805 3.46703 -2.22536 -3.39 -1.56336 1.09553 20.2534 -7.13179 -6.00707 -2.25433 -9.85422 -4.99462 -8.44516 -5.20833 -13.7913 -6.99667 -12.5873 -10.2902 -9.4177
internal_weight=1042 1008 986 620 247 90 157 373 344 287 137 68 366 259 102 107 81 157 57 45 62 57 100 40
internal_count=1042 1008 986 620 247 90 157 373 344 287 137 68 366 259 102 107 81 157 57 45 62 57 100 40
is_linear=0
shrinkage=0.1


Tree=22
num_leaves=27
num_cat=0
split_feature=8 11 9 3 4 8 8 2 6 8 0 7 8 1 8 5 0 0 8 1 1 6 1 1 9 3
split_gain=2.57048e+06 1.91028e+06 1.66804e+06 1.31942e+06 973688 889634 654438 502037 682251 326256 309568 320146 294702 226903 143326 62197.2 49012.5 70627.5 48488.2 40130.3 39738.1 34766.1 29900 15168.7 14197.5 7130.79
threshold=1.1835328351962358 0.28232598821589078 0.30426521408153512 -0.71608464348926304 -0.37700866829776397 -0.97572341636040261 3.215332988570712 1.0000000180025095e-35 1.1359676947405808 -1.2906149530457458 -0.72152723254945073 1.0000000180025095e-35 -1.2156407776444735 -0.043731633565865145 -1.0956820970024379 -0.26884006919831888 0.73692354595011833 -0.72152723254945073 -0.36093517806997089 -0.37048929415348475 -0.49087369542260778 0.29776752626210662 -1.1902497408908461 -0.037999043029240238 -0.31295412808786766 -0.64674534430556185
decision_type=2 2 2 2 2 2 2 2 2 2 2 2 2 2 2 2 2 2 2 2 2 2 2 2 2 2
left_child=1 4 -2 12 16 9 -4 8 21 -6 15 -12 -3 -11 -15 -9 17 22 -19 -20 -10 -7 -1 24 -18 -24
right_child=2 3 6 -5 5 7 -8 10 20 13 11 -13 -14 14 -16 -17 23 18 19 -21 -22 -23 25 -25 -26 -27
leaf_value=-7.2406842360625392 40.792087574438618 11.58916050195694 -1.0670993968844413 27.167930979198879 18.714843836155804 1.7210187736153604 20.777685721715294 -7.0998766605670642 16.712501952194032 13.180834670688796 -11.139997518630256 -1.8004682735069513 -2.9824510002136231 -3.2664203564325969 7.22601667901744 -13.597204349672095 -13.495042648315431 -0.98165439605712901 -8.0791306798218514 -2.9693601792508906 10.484180383682251 -3.0219449982923621 -12.478784971237182 -8.707905575723359 -9.7722184311775937 -9.9672107769892762
leaf_weight=37 22 23 32 36 22 20 24 26 21 23 42 291 35 30 23 34 20 20 51 22 20 68 20 33 21 26
leaf_count=37 22 23 32 36 22 20 24 26 21 23 42 291 35 30 23 34 20 20 51 22 20 68 20 33 21 26
internal_value=2.17833e-08 -1.4128 17.4608 12.1299 -2.87604 -0.751697 8.29495 -2.393 3.01996 7.99073 -4.16977 -2.97843 2.79595 4.88638 1.2869 -10.7817 -8.14441 -7.2365 -5.34403 -6.5392 13.6743 -1.944 -9.35697 -10.3038 -11.5882 -11.0592
internal_weight=1042 964 78 94 870 620 56 522 129 98 393 333 58 76 53 60 250 176 93 73 41 88 83 74 41 46
internal_count=1042 964 78 94 870 620 56 522 129 98 393 333 58 76 53 60 250 176 93 73 41 88 83 74 41 46
is_linear=0
shrinkage=0.1


Tree=23
num_leaves=19
num_cat=0
split_feature=6 11 8 2 8 6 6 7 8 6 6 4 6 1 8 4 5 1
split_gain=2.23894e+06 1.81967e+06 1.34302e+06 1.13301e+06 747866 471546 790993 416488 396070 371768 358736 360276 283402 296796 143554 86099.3 53327.3 52919.6
threshold=2.1604345673253831 0.28232598821589078 -0.93073891111963947 -0.88723761967251979 -1.2906149530457458 1.1359676947405808 1.5085011029532363 1.5889668987033245 -1.0956820970024379 1.1825343707671629 1.3222343988469085 -0.63353666813509146 0.85656763858108942 1.5327307640059844 -0.87075957079862165 0.4912399465362674 1.0000000180025095e-35 -0.68004918313122964
decision_type=2 2 2 2 2 2 2 2 2 2 2 2 2 2 2 2 2 2
left_child=1 3 8 5 -5 12 9 10 15 -7 11 -6 13 14 -1 -3 17 -14
right_child=-2 2 -4 4 7 6 -8 -9 -10 -11 -12 -13 16 -15 -16 -17 -18 -19
leaf_value=15.463939146995546 32.321415707043244 4.7644407562587574 28.690308501864923 13.331245597203575 -7.9629792094586254 10.310779318128313 -4.620995860099792 6.1548855816616737 -7.7655941295623778 26.900080164996059 -16.708132061591517 -2.9180676035076307 1.5385489106178285 -5.2691197940281462 4.786926146114574 13.417125046771506 -8.3713011900583911 -5.4948207378387455
leaf_weight=20 21 23 33 24 220 35 25 34 20 22 26 397 20 21 34 23 21 23
leaf_count=20 21 23 33 24 220 35 25 34 20 22 26 397 20 21 34 23 21 23
internal_value=2.19467e-08 -0.664789 12.2186 -2.04815 -4.01644 4.19516 10.2092 -4.63142 3.98279 16.7137 -5.20177 -4.7169 0.647306 4.81844 8.74138 9.09078 -4.24074 -2.22349
internal_weight=1042 1021 99 922 701 221 82 677 66 57 643 617 139 75 54 46 64 43
internal_count=1042 1021 99 922 701 221 82 677 66 57 643 617 139 75 54 46 64 43
is_linear=0
shrinkage=0.1


Tree=24
num_leaves=26
num_cat=0
split_feature=8 9 11 3 10 8 6 9 6 2 3 1 8 1 0 8 5 0 8 1 1 6 8 8 1
split_gain=1.81548e+06 1.9409e+06 1.23231e+06 909956 723548 658382 588135 476294 642292 553967 497397 300054 219894 85686.1 139516 128507 81218.6 49738.4 100281 28008.8 53258.1 35597.1 26160.7 34635.8 5957.47
threshold=1.3409786035389073 0.30426521408153512 0.28232598821589078 -0.71608464348926304 1.0000000180025095e-35 3.215332988570712 -0.35416593811003988 -0.19028908532233965 0.29776752626210662 1.0000000180025095e-35 -1.5481562336936812 -1.3049015516233442 -1.2156407776444735 -0.2157093496646123 -0.72152723254945073 0.24710538443434613 -0.6611808984765376 1.0000000180025095e-35 0.24710538443434613 -1.075597930158348 -1.322099323233219 -0.6335659942695312 0.52376009166504078 0.24710538443434613 1.2919619614677382
decision_type=2 2 2 2 2 2 2 2 2 2 2 2 2 2 2 2 2 2 2 2 2 2 2 2 2
left_child=2 -2 4 12 13 -3 17 10 -9 -10 -8 -12 -4 19 24 16 -16 18 -6 20 21 -1 23 -21 -15
right_child=1 5 3 -5 6 -7 7 8 9 -11 11 -13 -14 14 15 -17 -18 -19 -20 22 -22 -23 -24 -25 -26
leaf_value=-3.8814647104894826 41.926313071250917 -6.3978817729949959 9.6152169186135996 22.259537416034277 -13.485840158049877 16.790008950730165 13.992971492948989 18.725933262333275 7.3174339117774041 -7.3952810725650266 -13.774635926783086 -1.0259350269784531 -2.9717870889391218 -9.7711659908294681 -5.3928569001417896 5.2308904170989994 1.8944251191616059 -4.2712396844839438 -5.0645361565774492 -11.001006253560384 -1.3841465725004674 -8.5792391317862062 -11.505652686527798 -6.2502463499704994 -7.5277239043137136
leaf_weight=23 20 25 23 36 26 24 21 32 83 37 20 240 35 20 65 20 20 39 31 21 20 54 21 57 29
leaf_count=23 20 25 23 36 26 24 21 32 83 37 20 240 35 20 65 20 20 39 31 21 20 54 21 57 29
internal_value=4.75597e-08 15.6745 -1.11155 9.77107 -2.27534 4.95945 0.0583666 1.62838 6.13784 2.78101 -0.810906 -2.0066 2.01961 -5.80256 -4.03738 -1.98123 -3.6782 -7.02303 -8.90583 -7.18949 -5.98181 -7.17601 -8.37277 -7.5293 -8.44341
internal_weight=1042 69 973 94 879 49 529 433 152 120 281 260 58 350 154 105 85 96 57 196 97 77 99 78 49
internal_count=1042 69 973 94 879 49 529 433 152 120 281 260 58 350 154 105 85 96 57 196 97 77 99 78 49
is_linear=0
shrinkage=0.1


Tree=25
num_leaves=24
num_cat=0
split_feature=6 11 10 9 4 4 9 3 6 6 4 0 6 0 1 8 8 5 1 11 8 7 4
split_gain=1.64253e+06 1.29372e+06 896659 702965 415832 414435 409735 778232 404114 747022 270168 231833 150702 87463.8 129448 142800 82696 76923.6 70915.9 69178.8 32029.1 20229.7 10861.6
threshold=2.1604345673253831 3.2629511917909144 1.0000000180025095e-35 -0.19028908532233965 1.0832276384685617 0.25444486976334973 0.30426521408153512 -1.0974507889996212 1.3222343988469085 1.1825343707671629 0.57017163879390664 -0.72152723254945073 0.29776752626210662 -0.72152723254945073 -0.3188959793238606 0.4187962461032595 0.37381174086249619 -0.6611808984765376 -1.075597930158348 1.0000000180025095e-35 0.31383240054147871 1.0000000180025095e-35 -0.73220128345714042
decision_type=2 2 2 2 2 2 2 2 2 2 2 2 2 2 2 2 2 2 2 2 2 2 2
left_child=1 2 13 4 5 11 7 -5 9 -8 -7 -4 -9 16 18 17 21 -16 19 -15 -20 -1 -23
right_child=-2 -3 3 6 -6 10 8 12 -10 -11 -12 -13 -14 14 15 -17 -18 -19 20 -21 -22 22 -24
leaf_value=-3.5942037045955662 27.683806864420575 19.546709374458558 -9.2384541081345599 -0.49779075033761355 -13.116005157602245 12.379414135217667 0.83012791761645566 23.070143381754558 -9.489385772705079 20.334691611925763 1.2102167926617522 -1.3759514344149624 12.311123475691547 -6.3844187750960844 -5.1145817822304327 5.2163879791895553 -12.203643941879273 1.5632464989371924 -6.4761979668228724 0.67162519032135615 -10.468741238117218 -5.8400333806872373 -8.7668756666637613
leaf_weight=26 21 31 46 37 29 32 108 30 25 24 67 203 23 33 69 24 28 23 54 24 32 32 21
leaf_count=26 21 31 46 37 29 32 108 30 25 24 67 203 23 33 69 24 28 23 54 24 32 32 21
internal_value=1.42584e-08 -0.569402 -1.1993 1.10556 -1.61121 -0.652475 5.2522 10.6316 2.16848 4.37641 4.82046 -2.82846 18.4011 -5.1289 -4.13529 -1.65309 -7.53399 -3.44512 -6.14882 -3.41345 -7.9618 -5.87892 -6.99973
internal_weight=1042 1021 990 624 377 348 247 90 157 132 99 249 53 366 259 116 107 92 143 57 86 79 53
internal_count=1042 1021 990 624 377 348 247 90 157 132 99 249 53 366 259 116 107 92 143 57 86 79 53
is_linear=0
shrinkage=0.1


Tree=26
num_leaves=22
num_cat=0
split_feature=3 9 9 8 4 1 1 1 11 8 1 0 0 5 8 9 1 1 2 8 8
split_gain=1.38629e+06 1.63441e+06 821187 630958 449908 429887 1.37448e+06 513756 551882 374866 514578 364944 287054 79435.7 62796 45133 48992.6 51450.6 42510.8 16079.9 10350.5
threshold=0.91338888732772205 0.17965310714512572 0.6664191498654749 -1.2906149530457458 -0.63353666813509146 -1.3049015516233442 -1.1214586544513472 -0.3188959793238606 0.28232598821589078 2.6005447502802803 1.0000000180025095e-35 1.0000000180025095e-35 0.97999867570004662 -0.26884006919831888 0.028930534016644169 -0.5874901761821445 -0.37048929415348475 0.3346193418513787 1.0000000180025095e-35 -0.15850490448653623 -0.93073891111963947
decision_type=2 2 2 2 2 2 2 2 2 2 2 2 2 2 2 2 2 2 2 2 2
left_child=3 -2 9 11 13 14 -7 12 -9 10 18 -1 -8 15 -6 20 19 -18 -3 -17 -5
right_child=1 2 -4 4 5 6 7 8 -10 -11 -12 -13 -14 -15 -16 16 17 -19 -20 -21 -22
leaf_value=-1.2706911897659303 35.981111221313476 1.3543581235408784 23.192018015384676 -9.4732192364605989 -12.988581304964811 18.79744408581708 -8.591568481814754 -0.94661553003946031 9.1596166998147961 -10.911081672850109 16.152602926890054 15.948971837759018 3.9120149964636024 -10.864333452497211 -6.223077412563212 -8.3264374819668863 1.4787819375162541 -4.2932854056358343 -4.8880955415467424 -5.1436580128837051 -6.47030444641908
leaf_weight=20 20 20 20 22 23 37 111 347 64 21 24 32 22 28 34 22 23 47 24 57 24
leaf_count=20 20 20 20 22 23 37 111 347 64 21 24 32 22 28 34 22 23 47 24 57 24
internal_value=-5.42276e-09 9.70361 4.88205 -1.37105 -2.01709 -0.665637 0.147411 -1.12107 0.627104 0.767445 4.37405 9.32602 -6.52331 -5.8836 -8.95302 -5.16841 -4.3231 -2.39675 -2.05062 -6.03 -7.90648
internal_weight=1042 129 109 913 861 638 581 544 411 89 68 52 133 223 57 195 149 70 44 79 46
internal_count=1042 129 109 913 861 638 581 544 411 89 68 52 133 223 57 195 149 70 44 79 46
is_linear=0
shrinkage=0.1


Tree=27
num_leaves=24
num_cat=0
split_feature=6 11 10 1 1 1 6 9 9 6 1 1 0 1 8 1 1 1 4 5 8 3 8
split_gain=1.23309e+06 911255 623231 543405 771222 708699 526318 454227 315370 298005 270408 343994 65150.2 85332.9 111090 71803.6 61460.4 41983.2 57979.7 37757 36059.7 16791.3 11302.3
threshold=2.1604345673253831 3.2629511917909144 1.0000000180025095e-35 1.0626583400027421 0.89068062390399472 0.94227393873361887 -0.12133255797713047 -0.19028908532233965 0.30426521408153512 0.71686761050134373 1.4352767248833609 1.555661126152484 -0.72152723254945073 -0.17271492063992552 0.26884789530071534 0.25722936960694248 1.3091597330776128 -1.075597930158348 -0.21914528378248557 -0.6611808984765376 0.52376009166504078 0.35867449385811007 0.26884789530071534
decision_type=2 2 2 2 2 2 2 2 2 2 2 2 2 2 2 2 2 2 2 2 2 2 2
left_child=1 2 12 4 7 -6 -5 9 -9 -4 -8 -12 15 17 19 21 -17 18 -14 -15 -19 -1 -23
right_child=-2 -3 3 6 5 -7 10 8 -10 -11 11 -13 13 14 -16 16 -18 20 -20 -21 -22 22 -24
leaf_value=-1.8674488487697785 23.986481189727783 16.389422982354318 -0.58401417064515859 -16.791132349967956 24.200638376433275 1.2254605712890625 -10.361850825600003 11.540675692655604 2.269104557167994 -11.323392493971463 11.244187796592712 -4.5216955092645463 -5.2662419625691008 -4.1052429504081855 5.2928035054888047 -13.546420053243637 -6.1090555877685553 -5.1887442210316657 1.2850947455926376 0.90157133221626296 -9.9360947513580342 -6.965008767445882 -3.6433851313591008
leaf_weight=21 21 31 237 30 29 25 23 49 146 29 25 31 35 61 21 20 25 80 22 20 20 21 20
leaf_count=21 21 31 237 30 29 25 23 49 146 29 25 31 35 61 21 20 25 80 22 20 20 21 20
internal_value=3.14354e-08 -0.493356 -1.02201 0.899556 2.25718 13.564 -5.5149 0.932739 4.59888 -1.75485 -1.23279 2.51665 -4.29812 -3.44057 -1.18862 -6.37387 -9.41455 -4.90362 -2.73766 -2.86899 -6.13821 -4.16692 -5.3447
internal_weight=1042 1021 990 624 515 54 109 461 195 266 79 56 366 259 102 107 45 157 57 81 100 62 41
internal_count=1042 1021 990 624 515 54 109 461 195 266 79 56 366 259 102 107 45 157 57 81 100 62 41
is_linear=0
shrinkage=0.1


Tree=28
num_leaves=18
num_cat=0
split_feature=8 9 11 8 8 2 6 8 8 8 6 7 8 6 4 9 0
split_gain=1.14122e+06 1.45159e+06 517708 583472 464787 439243 401961 387884 277324 265192 258466 263830 210401 167243 48161.9 37272.4 107217
threshold=1.3409786035389073 0.30426521408153512 0.28232598821589078 -0.93073891111963947 3.215332988570712 -0.88723761967251979 1.1359676947405808 -1.2906149530457458 -0.79578539539734949 -1.0956820970024379 1.9741678632190551 1.5889668987033245 0.82365679327012919 0.85656763858108942 0.4912399465362674 -0.19028908532233965 1.0000000180025095e-35
decision_type=2 2 2 2 2 2 2 2 2 2 2 2 2 2 2 2 2
left_child=2 -2 5 9 -3 6 8 -7 -1 14 11 13 -8 -9 -4 -10 -17
right_child=1 4 3 -5 -6 7 12 10 15 -11 -12 -13 -14 -15 -16 16 -18
leaf_value=7.1306923289048045 35.130328745841979 -6.3815414733886726 1.9847531899161961 18.268322210652489 13.101179393132529 9.7527806997299198 17.364642413457236 -3.560696551107192 -6.0947438218763903 -8.5724903193116191 -12.960442093702463 6.210377308630175 3.8256499222733762 5.1279443590537364 8.4562191424162503 1.9257093020847866 -6.5519709082750168
leaf_weight=38 20 25 23 28 24 24 24 602 28 20 26 31 22 23 23 35 26
leaf_count=38 20 25 23 28 24 24 24 602 28 20 26 31 22 23 23 35 26
internal_value=3.62247e-08 12.4275 -0.881291 6.1724 3.16102 -1.63561 2.88022 -2.74218 -0.0207712 1.0408 -3.18189 -2.79432 10.8895 -3.24095 5.22049 -3.07421 -1.68773
internal_weight=1042 69 973 94 49 879 173 706 127 66 682 656 46 625 46 89 61
internal_count=1042 69 973 94 49 879 173 706 127 66 682 656 46 625 46 89 61
is_linear=0
shrinkage=0.1


Tree=29
num_leaves=13
num_cat=0
split_feature=6 6 6 1 7 8 9 1 1 2 1 8
split_gain=968839 852032 1.44648e+06 481815 476460 477504 312035 372638 222784 180847 84539.5 32995.8
threshold=2.0673012152722192 1.5085011029532363 1.1359676947405808 -1.0584001585484735 0.65142244318301656 -1.3955787986075265 -0.47650751844190492 -0.34182634147036023 -0.1067901294687391 0.72761233613318432 1.0626583400027421 1.0185896493134372
decision_type=2 2 2 2 2 2 2 2 2 2 2 2
left_child=1 2 4 -4 5 -1 10 -8 -5 -6 -7 -3
right_child=-2 11 3 8 9 6 7 -9 -10 -11 -12 -13
leaf_value=12.96805790120905 19.061283048299643 -11.49365899950266 24.963972222805026 2.8112770514054732 1.7090822605859666 -5.3463184320378581 -3.9147863658005693 0.7293766046480803 15.986918581099738 14.082351013466164 -11.844963869681726 -17.105784836724741
leaf_weight=22 26 20 24 33 21 87 294 419 21 27 26 22
leaf_count=22 26 20 24 33 21 87 294 419 21 27 26 22
internal_value=-6.04377e-10 -0.487789 0.11356 13.1748 -1.02347 -1.5721 -1.95937 -1.18561 7.93514 8.66905 -6.84158 -14.4333
internal_weight=1042 1016 974 78 896 848 826 713 54 48 113 42
internal_count=1042 1016 974 78 896 848 826 713 54 48 113 42
is_linear=0
shrinkage=0.1


Tree=30
num_leaves=17
num_cat=0
split_feature=3 9 9 8 1 8 1 2 0 1 7 0 3 2 4 1
split_gain=882867 1.17872e+06 606200 393049 383605 364934 361194 572562 704953 464496 346633 258372 209603 207098 146895 40287.6
threshold=0.91338888732772205 0.17965310714512572 0.6664191498654749 2.6005447502802803 1.0000000180025095e-35 -1.2906149530457458 1.5327307640059844 -1.6946625975753717 1.0000000180025095e-35 1.5212655829327344 0.65142244318301656 1.0000000180025095e-35 -0.71608464348926304 0.72761233613318432 0.57017163879390664 -0.84056171815672698
decision_type=2 2 2 2 2 2 2 2 2 2 2 2 2 2 2 2
left_child=5 -2 3 4 15 11 7 8 -7 10 12 -1 -9 -12 -8 -3
right_child=1 2 -4 -5 -6 6 14 9 -10 -11 13 -13 -14 -15 -16 -17
leaf_value=-1.875096983909607 30.059449153542516 -4.9068451918306808 19.380850815773012 -11.844418784550259 13.976729475458464 -2.5516617695490522 -16.786595191955566 -7.6685385183590213 19.127098553975426 10.551189251603752 -1.4336379834583828 12.613770884275437 -2.2782944551586795 11.918188571929932 -5.0684583539548136 1.1512816097425378
leaf_weight=20 20 21 20 21 24 30 20 82 30 29 21 32 600 26 23 23
leaf_count=20 20 21 20 21 24 30 20 82 30 29 21 32 600 26 23 23
internal_value=-1.11304e-08 7.7438 3.64919 0.113982 3.80702 -1.09414 -1.58547 -1.11587 8.28772 -1.86022 -2.35395 7.04113 -2.92639 5.95248 -10.5188 -1.7401
internal_weight=1042 129 109 89 68 913 861 818 60 758 729 52 682 47 43 44
internal_count=1042 129 109 89 68 913 861 818 60 758 729 52 682 47 43 44
is_linear=0
shrinkage=0.1


Tree=31
num_leaves=17
num_cat=0
split_feature=8 7 4 8 2 1 8 3 0 1 0 0 3 8 5 1
split_gain=776828 707925 618432 328104 372171 300582 546461 479729 282998 281385 402707 388233 336152 260781 141632 51548.3
threshold=1.9557668418293392 0.65142244318301656 0.37284240814980857 -1.3955787986075265 -0.88723761967251979 1.5327307640059844 0.52376009166504078 0.91338888732772205 1.0000000180025095e-35 -0.2157093496646123 -0.72152723254945073 -0.47845210279952261 -0.71608464348926304 -0.27096616758844422 -0.26884006919831888 -0.71157843108266661
decision_type=2 2 2 2 2 2 2 2 2 2 2 2 2 2 2 2
left_child=1 3 -3 -1 5 6 8 -8 -5 12 14 -12 -6 -14 -11 -2
right_child=15 2 -4 4 9 -7 7 -9 -10 10 11 -13 13 -15 -16 -17
leaf_value=10.870884622227063 17.255577945709231 2.3217371675703262 23.915207781110492 3.0712480034146989 -15.25697622214045 -8.3759914120038346 -6.902839463854594 7.5680063949690926 14.257631850729183 -2.983368887180506 6.362119336704632 -1.4248356082787117 4.311104977471488 -4.8919084471155658 -11.250510910749435 10.075865440368652
leaf_weight=22 20 36 21 42 28 24 63 36 49 43 91 216 35 256 40 20
leaf_count=22 20 36 21 42 28 24 63 36 49 43 91 216 35 256 40 20
internal_value=4.78568e-09 -0.545538 10.2772 -1.19834 -1.48601 2.16898 3.50098 -1.64071 9.09469 -2.58921 -0.787479 0.88335 -4.79196 -3.78502 -6.96753 13.6657
internal_weight=1042 1002 57 945 923 214 190 99 91 709 390 307 319 291 83 40
internal_count=1042 1002 57 945 923 214 190 99 91 709 390 307 319 291 83 40
is_linear=0
shrinkage=0.1


Tree=32
num_leaves=15
num_cat=0
split_feature=6 6 6 9 8 8 7 6 5 6 4 1 0 8
split_gain=663821 574811 1.43397e+06 326843 433031 321467 276798 242862 143247 97046.5 78320.4 74939.8 71103.5 13660.7
threshold=2.1604345673253831 1.3222343988469085 1.1825343707671629 -0.47650751844190492 -1.2906149530457458 0.82365679327012919 1.0000000180025095e-35 1.1359676947405808 -0.26884006919831888 -0.54043264221636744 0.17551317750571049 0.94227393873361887 0.73692354595011833 -0.96072858128014837
decision_type=2 2 2 2 2 2 2 2 2 2 2 2 2 2
left_child=1 2 3 8 10 -3 12 -8 9 13 -5 -11 -6 -1
right_child=-2 5 -4 4 6 -7 7 -9 -10 11 -12 -13 -14 -15
leaf_value=-9.1151221346855174 17.599284146229426 -0.647498031096025 22.114714915176918 5.8143308401107792 -3.4611730023035925 -16.073751377378191 -0.0071112029535590482 8.3269681485923552 -12.932643060684207 1.4516479302197696 14.558224286351885 -5.9253820782616025 -9.3761902826031047 -5.6669564300113251
leaf_weight=20 21 22 29 20 63 35 636 37 20 40 21 21 30 27
leaf_count=20 21 22 29 20 63 35 636 37 20 40 21 21 30 27
internal_value=2.53148e-08 -0.361983 0.214981 -0.464262 0.280353 -10.1198 -0.255567 0.451077 -5.15883 -3.71923 10.2929 -1.08799 -5.36924 -7.13426
internal_weight=1042 1021 964 935 807 57 766 673 128 108 41 61 93 47
internal_count=1042 1021 964 935 807 57 766 673 128 108 41 61 93 47
is_linear=0
shrinkage=0.1


Tree=33
num_leaves=21
num_cat=0
split_feature=8 9 10 1 7 11 6 1 8 8 4 8 0 4 4 4 1 1 1 6
split_gain=578885 1.18766e+06 296068 396722 382440 373422 269013 338129 228236 215216 169405 166745 78152 44612.6 44714.6 78295.7 46055.8 60595.9 37703.5 14116
threshold=1.3409786035389073 0.30426521408153512 1.0000000180025095e-35 1.5327307640059844 1.0000000180025095e-35 1.1684578054949519 -1.1457994305619319 -1.0985282923048476 3.215332988570712 -0.93073891111963947 0.64910333105154583 -1.1706562724037102 -0.47845210279952261 1.1226934845973813 0.68856917718036548 0.17551317750571049 1.1085190642957412 -0.17271492063992552 -0.37622188469010964 -0.44729929016320369
decision_type=2 2 2 2 2 2 2 2 2 2 2 2 2 2 2 2 2 2 2 2
left_child=2 -2 13 4 12 6 18 -8 -3 11 -5 -7 -4 14 15 16 17 -1 -6 -18
right_child=1 8 3 10 5 9 7 -9 -10 -11 -12 -13 -14 -15 -16 -17 19 -19 -20 -21
leaf_value=-2.8923512148530519 29.386502687931063 -6.2177586593627936 -3.5514494848251346 -12.791339036308486 -8.3601683176480801 11.166746397018434 9.0109343900518919 0.82567650938785531 7.4348108609517416 16.262417984008788 -0.9979315984816779 -1.5915848766054426 -12.391812763214112 -6.7509371297700076 0.73297571804788386 -8.030535670689174 -3.5975829139351845 0.83912897021059063 -2.9211679687499998 -6.7689605107307429
leaf_weight=146 20 25 20 29 26 20 59 349 24 26 21 21 20 28 36 28 32 62 25 25
leaf_count=146 20 25 20 29 26 20 59 349 24 26 21 21 20 28 36 28 32 62 25 25
internal_value=1.53459e-08 8.85104 -0.627669 0.700287 1.45456 2.17138 1.1534 2.00933 0.469214 9.14529 -7.83811 4.63199 -7.97163 -2.91904 -2.59292 -3.00157 -2.4702 -1.78008 -5.69399 -4.98854
internal_weight=1042 69 973 616 566 526 459 408 49 67 50 41 40 357 329 293 265 208 51 57
internal_count=1042 69 973 616 566 526 459 408 49 67 50 41 40 357 329 293 265 208 51 57
is_linear=0
shrinkage=0.1


Tree=34
num_leaves=20
num_cat=0
split_feature=3 9 9 8 1 6 4 6 8 1 1 1 8 4 8 1 6 3 1
split_gain=506967 912002 432990 433536 291319 287094 279347 254112 291142 284733 262166 369217 70068.7 53048.8 51011.1 48195.4 40425.3 20310.1 20251
threshold=0.91338888732772205 0.17965310714512572 0.6664191498654749 2.6005447502802803 1.0000000180025095e-35 1.5085011029532363 0.64910333105154583 -0.44729929016320369 -1.2906149530457458 1.5327307640059844 -1.4826118582587164 -1.0985282923048476 -0.79578539539734949 0.17551317750571049 -0.25597133250818976 -0.84056171815672698 -0.58699931824294926 -1.9641920287958898 0.21423494058225565
decision_type=2 2 2 2 2 2 2 2 2 2 2 2 2 2 2 2 2 2 2
left_child=5 -2 3 4 15 7 -7 12 13 10 -10 -12 17 -9 -14 -3 18 -1 -16
right_child=1 2 -4 -5 -6 6 -8 8 9 -11 11 -13 14 -15 16 -17 -18 -19 -20
leaf_value=-4.9106489702507305 25.497227402925493 -5.1404221943446569 15.561940670013428 -13.280560175577799 12.019613088170688 -16.673170693896036 -0.91148334586102031 4.9610014858699989 -9.0551239004841566 -9.1403876341879364 7.4501617119683843 -0.036303115426971198 2.0303841085537622 11.987693275104871 -2.8564732357996321 1.48564395075259 -6.3855617194340155 -9.1150833320617686 0.29920297634601595
leaf_weight=27 20 21 20 21 24 22 23 21 27 32 77 456 23 22 109 23 29 20 25
leaf_count=27 20 21 20 21 24 22 23 21 27 32 77 456 23 22 109 23 29 20 25
internal_value=-3.08034e-09 5.86809 2.26641 -0.721349 3.15723 -0.829116 -8.6172 -0.425356 0.611083 0.0339991 0.55825 1.04523 -3.24999 8.55605 -2.37827 -1.6768 -3.00035 -6.69977 -2.26773
internal_weight=1042 129 109 89 68 913 45 868 635 592 560 533 233 43 186 44 163 47 134
internal_count=1042 129 109 89 68 913 45 868 635 592 560 533 233 43 186 44 163 47 134
is_linear=0
shrinkage=0.1


Tree=35
num_leaves=13
num_cat=0
split_feature=8 7 4 6 8 6 8 1 4 1 8 1
split_gain=474976 505295 469835 245199 504975 443563 220958 194913 251837 193545 72409.4 29502.2
threshold=1.9557668418293392 0.65142244318301656 0.37284240814980857 1.3222343988469085 0.82365679327012919 1.1359676947405808 -1.3955787986075265 -0.34755893200698512 0.4912399465362674 -1.0985282923048476 0.89863096867140146 -0.71157843108266661
decision_type=2 2 2 2 2 2 2 2 2 2 2 2
left_child=1 3 -3 5 -5 6 -1 9 -9 -8 -7 -2
right_child=11 2 -4 4 -6 10 7 8 -10 -11 -12 -13
leaf_value=8.8162723468108606 13.401566691398621 1.7828569905625451 20.604147248041063 2.5854907883538143 -16.265309098561605 13.537685775756836 -0.74498185054571542 -1.7796966368095228 2.9286395797903619 -5.5822940504762553 5.3282984690232711 7.9699714374542241
leaf_weight=22 20 36 21 27 30 21 162 314 178 169 22 20
leaf_count=22 20 36 21 27 30 21 162 314 178 169 22 20
internal_value=-8.69508e-09 -0.426578 8.71702 -0.978096 -7.33598 -0.569988 -1.07416 -1.33854 -0.0762742 -3.21479 9.33753 10.6858
internal_weight=1042 1002 57 945 57 888 845 823 492 331 43 40
internal_count=1042 1002 57 945 57 888 845 823 492 331 43 40
is_linear=0
shrinkage=0.1


Tree=36
num_leaves=15
num_cat=0
split_feature=6 6 6 0 9 8 2 0 7 5 6 0 4 4
split_gain=449531 519458 953299 252967 211979 254807 167900 248193 175333 131490 71053.3 54999.6 50657.1 13330.6
threshold=2.0673012152722192 1.3222343988469085 1.1825343707671629 0.73692354595011833 -0.47650751844190492 -1.2906149530457458 -1.6946625975753717 1.0000000180025095e-35 0.65142244318301656 -0.26884006919831888 -0.54043264221636744 0.73692354595011833 0.17551317750571049 -1.7188474366776305
decision_type=2 2 2 2 2 2 2 2 2 2 2 2 2 2
left_child=1 2 4 -3 9 12 7 -7 -8 10 13 -12 -6 -1
right_child=-2 3 -4 -5 5 6 8 -9 -10 -11 11 -13 -14 -15
leaf_value=-7.6412673687934873 12.983935009516202 -15.581959751248361 18.04883670313605 -1.245455198287964 4.3174428164958956 -2.7243347593716214 -1.013710468494418 9.4894005054380841 6.0604493463361591 -11.589598522186279 2.8586373020101479 -3.1867393195629123 11.349583075160073 -4.2350139611297184
leaf_weight=20 26 32 29 20 20 28 660 41 37 20 27 34 21 27
leaf_count=20 26 32 29 20 20 28 660 41 37 20 27 34 21 27
internal_value=-8.36224e-10 -0.332266 0.192894 -10.0679 -0.360927 0.238738 -0.172361 4.5331 -0.638181 -4.14163 -2.76238 -0.510917 7.91927 -5.68448
internal_weight=1042 1016 964 52 935 807 766 69 697 128 108 61 41 47
internal_count=1042 1016 964 52 935 807 766 69 697 128 108 61 41 47
is_linear=0
shrinkage=0.1


Tree=37
num_leaves=20
num_cat=0
split_feature=11 7 4 1 1 1 2 8 6 8 0 0 1 6 1 8 8 1 1
split_gain=396772 366643 392411 255206 714959 379100 154169 198795 253126 138824 130682 119560 116343 108786 72493.7 68428 37318.4 22632.1 4400.08
threshold=3.2629511917909144 0.65142244318301656 0.25444486976334973 1.1085190642957412 0.89068062390399472 0.93654134819699386 -0.88723761967251979 0.52376009166504078 0.99626766666083522 0.87613871605102001 1.0000000180025095e-35 -0.72152723254945073 1.5212655829327344 1.3222343988469085 0.32315416077812892 -0.57086286919353313 -0.93073891111963947 1.5785914882989835 1.4352767248833609
decision_type=2 2 2 2 2 2 2 2 2 2 2 2 2 2 2 2 2 2 2
left_child=1 3 -3 4 6 -6 7 8 -1 -9 11 15 -13 14 -8 -5 -7 -12 -17
right_child=-2 2 -4 10 5 16 13 9 -10 -11 17 12 -14 -15 -16 18 -18 -19 -20
leaf_value=1.8635943397562553 10.624968166912304 0.94210706668741562 18.328243201119559 -9.3698740005493164 21.53999792098999 2.1281599241754283 -0.95901131296901121 -6.0164049780046618 15.295635232925415 1.2718147586905555 -9.79862954412188 -3.9057087264277719 5.9751086601844206 -7.7864476039491848 -4.262777579887004 -3.6479460187580273 8.0344803810119636 -5.705506480823864 -1.6198646214604377
leaf_weight=47 34 34 21 24 20 23 417 37 20 89 35 22 26 29 79 23 20 22 20
leaf_count=47 34 34 21 24 20 23 417 37 20 89 35 22 26 29 79 23 20 22 20
internal_value=-1.89253e-08 -0.358382 7.58045 -0.816552 -0.0485925 10.1657 -0.94483 1.47195 5.87316 -0.868377 -4.30362 -2.36304 1.4464 -1.83328 -1.48522 -5.09219 4.87529 -8.21883 -2.70465
internal_weight=1042 1008 55 953 781 63 718 193 67 126 172 115 48 525 496 67 43 57 43
internal_count=1042 1008 55 953 781 63 718 193 67 126 172 115 48 525 496 67 43 57 43
is_linear=0
shrinkage=0.1


Tree=38
num_leaves=20
num_cat=0
split_feature=3 9 9 8 6 4 1 9 8 11 11 6 3 5 6 1 4 1 8
split_gain=351693 746740 289222 441998 229549 222795 206673 145799 207486 181530 375250 292520 174805 116216 54400.2 44509.1 39794.8 33996.1 12412.3
threshold=0.91338888732772205 0.17965310714512572 0.6664191498654749 2.6005447502802803 1.5085011029532363 0.64910333105154583 -0.34182634147036023 -0.47650751844190492 -1.2906149530457458 2.2962619365773933 1.1684578054949519 0.13478416016906999 -1.5481562336936812 -0.26884006919831888 -0.54043264221636744 0.94227393873361887 0.17551317750571049 -0.2157093496646123 -0.96072858128014837
decision_type=2 2 2 2 2 2 2 2 2 2 2 2 2 2 2 2 2 2 2
left_child=4 -2 3 6 7 -6 -3 13 16 10 12 -11 -10 14 18 17 -9 -16 -1
right_child=1 2 -4 -5 5 -7 -8 8 9 11 -12 -13 -14 -15 15 -17 -18 -19 -20
leaf_value=-6.6217243766784666 22.649363307952882 -2.0948492849866551 12.49478135585785 -13.49459182705198 -14.848998884721235 -0.77284846927808681 8.9502662181854244 3.928836274147034 7.9564611053466798 -15.309410867691041 13.0440314932303 1.5889552400225686 -0.57456330616404516 -10.457063322067262 -1.1523211538791658 -3.9222629183814641 10.161593124980019 4.6782997077703481 -3.3081042551077333
leaf_weight=20 20 36 20 21 22 23 32 20 25 20 22 21 612 20 20 21 21 20 26
leaf_count=20 20 36 20 21 22 23 32 20 25 20 22 21 612 20 20 21 21 20 26
internal_value=5.24365e-09 4.88752 1.62847 -0.813399 -0.69057 -7.65452 3.10285 -0.329536 0.207014 -0.197961 0.203714 -6.65415 -0.239751 -3.46011 -2.15227 -0.194229 7.12122 1.76299 -4.74881
internal_weight=1042 129 109 89 913 45 68 868 741 700 659 41 637 127 107 61 41 40 46
internal_count=1042 129 109 89 913 45 68 868 741 700 659 41 637 127 107 61 41 40 46
is_linear=0
shrinkage=0.1


Tree=39
num_leaves=21
num_cat=0
split_feature=8 9 6 6 8 1 1 1 1 1 1 1 8 4 0 0 9 6 6 5
split_gain=333305 940590 166966 168453 552295 171692 402804 416800 157075 1.14514e+06 147817 154016 130748 125768 102454 57503.9 85867.8 48530 42923.7 22245.9
threshold=1.3409786035389073 0.30426521408153512 1.9741678632190551 0.85656763858108942 0.10390470941791642 1.1085190642957412 0.89068062390399472 0.94227393873361887 -1.1558541976710968 -1.075597930158348 -0.026533861955990428 -0.35902411308023491 3.215332988570712 0.17551317750571049 0.73692354595011833 -0.72152723254945073 -0.19028908532233965 -0.074765881950548563 1.1359676947405808 -0.26884006919831888
decision_type=2 2 2 2 2 2 2 2 2 2 2 2 2 2 2 2 2 2 2 2
left_child=2 -2 3 5 -5 6 8 -8 13 -10 11 18 -3 -1 15 19 -17 -16 -6 -7
right_child=1 12 -4 4 10 14 7 -9 9 -11 -12 -13 -14 -15 17 16 -18 -19 -20 -21
leaf_value=-2.335852821100326 24.991181468963624 -5.8043031845092772 -7.6973582729216545 18.368310461044313 -1.2285922146760502 -2.262018931593214 16.080465395450592 -0.20562178546732124 15.74143686521621 -1.607878322165349 6.8360219575740677 -6.89467453956604 4.5290217273558175 -9.9882064157062107 -9.946345055898032 -2.816611824035645 5.6424937415122987 -3.7628404191949154 4.4140145442315513 -6.0072825957988876
leaf_weight=105 20 25 31 20 26 35 30 33 42 404 27 34 24 27 30 30 20 22 28 29
leaf_count=105 20 25 31 20 26 35 30 33 42 404 27 34 24 27 30 30 20 22 28 29
internal_value=-6.56109e-09 6.71612 -0.476272 -0.238635 3.03088 -0.78558 -0.0433076 7.54966 -0.870915 0.0259137 0.363501 -1.62239 -0.743083 -3.90111 -3.65183 -1.97395 0.56703 -7.33025 1.6972 -3.95909
internal_weight=1042 69 973 942 135 807 641 63 578 446 115 88 49 132 166 114 50 52 54 64
internal_count=1042 69 973 942 135 807 641 63 578 446 115 88 49 132 166 114 50 52 54 64
is_linear=0
shrinkage=0.1


Tree=40
num_leaves=14
num_cat=0
split_feature=6 6 8 10 0 1 2 8 8 8 8 4 8
split_gain=326778 385518 461113 110397 180718 184281 338189 91512.5 65324.1 36306 22705.5 44506.5 25239.4
threshold=2.0673012152722192 1.5085011029532363 1.7683314033261588 1.0000000180025095e-35 -1.4507526217992353 1.5327307640059844 -1.6946625975753717 -0.99071825144065695 1.0185896493134372 0.89863096867140146 0.20886855497969756 0.17551317750571049 0.31383240054147871
decision_type=2 2 2 2 2 2 2 2 2 2 2 2 2
left_child=1 2 3 9 -5 6 -6 -7 -3 10 11 -1 -12
right_child=-2 8 -4 4 5 7 -8 -9 -10 -11 12 -13 -14
leaf_value=-1.407623907418456 11.070127229507154 -5.5276187205314642 11.926445455476642 -7.1412600780355522 10.078356733776275 -10.058086043312436 0.71747815377321567 -0.82910987680608583 -13.424123590642758 -5.5224302074183598 0.90061674825847149 -5.3915674334939787 -1.835914630156297
leaf_weight=160 26 20 32 29 42 21 476 22 22 23 70 34 65
leaf_count=160 26 20 32 29 42 21 476 22 22 23 70 34 65
internal_value=-4.40349e-09 -0.283291 0.121211 -0.279816 0.556362 0.954279 1.47647 -5.33628 -9.66388 -1.68136 -1.41284 -2.10584 -0.416972
internal_weight=1042 1016 974 942 590 561 518 43 42 352 329 194 135
internal_count=1042 1016 974 942 590 561 518 43 42 352 329 194 135
is_linear=0
shrinkage=0.1


Tree=41
num_leaves=18
num_cat=0
split_feature=11 7 4 4 4 1 5 6 0 2 3 4 9 1 9 6 4
split_gain=280232 245730 303938 188062 301348 330330 323285 180619 207252 149616 142016 125457 308259 255023 85571.2 87360.9 71446.6
threshold=3.2629511917909144 0.65142244318301656 0.25444486976334973 1.0832276384685617 0.60963748492272629 0.12251349199625715 1.1043528332754471 0.94970099063425328 0.73692354595011833 -0.88723761967251979 0.91338888732772205 0.80696671556682431 0.30426521408153512 -0.71157843108266661 -0.31295412808786766 0.29776752626210662 -0.25861112991130514
decision_type=2 2 2 2 2 2 2 2 2 2 2 2 2 2 2 2 2
left_child=1 3 -3 4 6 11 9 8 -7 16 -11 13 -13 -6 -5 -16 -1
right_child=-2 2 -4 14 5 7 -8 -9 -10 10 -12 12 -14 -15 15 -17 -18
leaf_value=-1.2474366406599682 8.9292720822726981 0.35580561301287483 15.656970913069589 -9.1636244728695608 -11.479585916519165 -1.4288148186423564 -10.466655909048546 12.999496529442922 10.055422103405 -1.0083513107723916 -7.7958061680649271 10.622519431031984 -1.9688931465148927 1.6676273865832223 0.91561857038928618 -6.7903032386409379 5.3290299442579165
leaf_weight=24 34 34 21 32 25 33 37 35 30 468 33 29 59 36 31 28 53
leaf_count=24 34 34 21 32 25 33 37 35 30 468 33 29 59 36 31 28 53
internal_value=1.26746e-08 -0.301186 6.19807 -0.676274 -0.219848 2.73048 -1.40477 7.23974 4.03987 -0.824688 -1.45543 -0.235347 2.18055 -3.72057 -4.99978 -2.74143 3.27922
internal_weight=1042 1008 55 953 862 247 615 98 63 578 501 149 88 61 91 59 77
internal_count=1042 1008 55 953 862 247 615 98 63 578 501 149 88 61 91 59 77
is_linear=0
shrinkage=0.1


Tree=42
num_leaves=14
num_cat=0
split_feature=7 8 6 7 4 8 1 9 1 0 4 1 1
split_gain=251658 433613 168794 158870 226665 169582 215357 131946 206276 56636.4 35008.2 33420.4 19603.5
threshold=1.0000000180025095e-35 1.9557668418293392 0.71686761050134373 0.65142244318301656 0.37284240814980857 -1.2906149530457458 1.6301848031286077 -0.53102531522658392 1.5212655829327344 0.73692354595011833 -0.8111329757147796 -1.2762385989402196 -0.13545308215186361
decision_type=2 2 2 2 2 2 2 2 2 2 2 2 2
left_child=2 3 9 5 -5 -2 7 10 -9 11 -7 -1 -13
right_child=1 -3 -4 4 -6 6 -8 8 -10 -11 -12 12 -14
leaf_value=-4.2570260256528858 6.2993829021328374 10.914700693961903 -11.632615339756013 0.42290725244416133 13.495702144077846 -2.1775332836942241 -10.784894752502442 -0.28094886105783895 6.7282549794514983 -5.9331227108836178 -6.3510311783971014 1.9130054322156038 -1.843134830395381
leaf_weight=22 38 39 24 36 21 44 20 627 45 32 37 33 24
leaf_count=22 38 39 24 36 21 44 20 627 45 32 37 33 24
internal_value=-1.49858e-08 0.599563 -4.02817 0.136094 5.2392 -0.22257 -0.543184 -0.271159 0.188417 -2.38397 -4.08395 -0.946337 0.331473
internal_weight=1042 907 135 868 57 811 773 753 672 111 81 79 57
internal_count=1042 907 135 868 57 811 773 753 672 111 81 79 57
is_linear=0
shrinkage=0.1


Tree=43
num_leaves=16
num_cat=0
split_feature=3 9 9 8 6 1 8 11 11 6 1 1 1 6 1
split_gain=220513 570730 217149 447488 216809 157694 98673.7 156755 177607 161768 88623.8 716593 161089 44284 42720.8
threshold=0.91338888732772205 0.17965310714512572 0.6664191498654749 2.6005447502802803 1.6016344550063999 0.025059452873633727 -1.3955787986075265 2.2962619365773933 0.28232598821589078 1.0000000180025095e-35 -1.0985282923048476 -1.1501216071344718 -0.3188959793238606 2.0673012152722192 -0.84056171815672698
decision_type=2 2 2 2 2 2 2 2 2 2 2 2 2 2 2
left_child=4 -2 3 5 6 14 -1 8 10 -9 11 -8 -12 -6 -3
right_child=1 2 -4 -5 13 -7 7 9 -10 -11 12 -13 -14 -15 -16
leaf_value=6.2503024806147041 19.398229026794436 -3.8098333543255216 10.436474494934082 -13.854638049716042 -10.860819948287238 9.8089559685100216 -1.5290160993661952 -12.545424672535489 6.7949695746103931 -0.40596592115319297 -3.6203636724298649 15.103060270845891 0.048105460507880664 -4.2858985328674315 2.3083026432991027
leaf_weight=23 20 21 20 21 21 22 136 21 36 23 165 32 436 20 25
leaf_count=23 20 21 20 21 21 22 136 21 36 23 165 32 436 20 25
internal_value=1.93686e-08 3.87011 1.02092 -1.09494 -0.546818 2.84556 -0.212672 -0.387758 -0.0700812 -6.1998 -0.391462 1.639 -0.959045 -7.65354 -0.484759
internal_weight=1042 129 109 89 913 68 872 849 805 44 769 168 601 41 46
internal_count=1042 129 109 89 913 68 872 849 805 44 769 168 601 41 46
is_linear=0
shrinkage=0.1


Tree=44
num_leaves=16
num_cat=0
split_feature=11 7 8 1 6 6 8 6 9 6 8 0 8 4 6
split_gain=206216 170345 173691 753517 231981 197378 212834 136390 85589.6 95445.3 61025.7 46345.2 27640.8 26537.8 22359.1
threshold=3.2629511917909144 1.0000000180025095e-35 1.3409786035389073 0.25722936960694248 1.9741678632190551 1.1359676947405808 0.52376009166504078 0.71686761050134373 -0.47650751844190492 0.29776752626210662 -0.96072858128014837 0.73692354595011833 2.6005447502802803 1.0000000180025095e-35 -0.35416593811003988
decision_type=2 2 2 2 2 2 2 2 2 2 2 2 2 2 2
left_child=1 7 4 12 5 8 -7 11 10 -10 -3 13 -4 14 -1
right_child=-2 2 3 -5 -6 6 -8 -9 9 -11 -12 -13 -14 -15 -16
leaf_value=-0.1248481728813865 7.6598152946023381 -7.3968015621105838 -5.024006947278977 21.312367601394655 -9.8189140319824233 13.577283521132038 0.71653308695362461 -10.399819413820904 0.90098387239892608 -1.8612214137587633 -1.5938623934984208 -5.2967198535799982 0.17047651835850308 2.3622728872299197 -4.0459661318705633
leaf_weight=33 34 24 20 20 24 22 31 24 466 171 74 32 21 20 26
leaf_count=33 34 24 20 20 24 22 31 24 466 171 74 32 21 20 26
internal_value=-1.73537e-08 -0.258367 0.252837 5.39913 -0.133769 0.16121 6.05496 -3.56415 -0.263782 0.159481 -3.01499 -2.08617 -2.36342 -0.785692 -1.8528
internal_weight=1042 1008 873 61 812 788 53 135 735 637 98 111 41 79 59
internal_count=1042 1008 873 61 812 788 53 135 735 637 98 111 41 79 59
is_linear=0
shrinkage=0.1


Tree=45
num_leaves=10
num_cat=0
split_feature=6 6 6 8 8 11 6 11 0
split_gain=193815 221670 492571 234675 84420.4 89432.9 180425 148229 61226.3
threshold=2.1604345673253831 1.3222343988469085 1.1825343707671629 0.82365679327012919 -1.3955787986075265 2.2962619365773933 1.0000000180025095e-35 1.1684578054949519 -1.4507526217992353
decision_type=2 2 2 2 2 2 2 2 2
left_child=1 2 4 -3 -1 7 -7 8 -6
right_child=-2 3 -4 -5 5 6 -8 -9 -10
leaf_value=5.7480493255283527 9.5096156165713364 1.8380055297504772 12.997899242927289 -11.342301567622593 -3.1902549604988764 -11.486163200650898 1.3342300415039063 6.9942469664982383 -0.14052097494568444
leaf_weight=23 21 22 29 35 72 21 23 28 768
leaf_count=23 21 22 29 35 72 21 23 28 768
internal_value=1.9344e-08 -0.195594 0.1627 -6.25517 -0.235397 -0.386296 -4.78459 -0.16334 -0.401927
internal_weight=1042 1021 964 57 935 912 44 868 840
internal_count=1042 1021 964 57 935 912 44 868 840
is_linear=0
shrinkage=0.1


Tree=46
num_leaves=16
num_cat=0
split_feature=0 6 6 6 1 3 3 3 0 8 8 1 8 1 8
split_gain=173031 303654 174256 235103 96063.3 89406.2 264090 107194 254272 182716 147893 107007 31478.4 25401.6 2328.47
threshold=0.97999867570004662 1.1359676947405808 2.1604345673253831 1.6016344550063999 -0.0093360903461157125 -1.5481562336936812 -1.7908437808366362 -0.88943289144851678 0.25077328645026198 -1.0956820970024379 -0.90074924095913056 1.5269981734693594 -1.2756201179654914 0.66710959297562333 -1.0057130865209112
decision_type=2 2 2 2 2 2 2 2 2 2 2 2 2 2 2
left_child=2 4 3 5 -2 6 12 8 9 -7 14 -12 -1 -6 -9
right_child=1 -3 -4 -5 13 7 -8 10 -10 -11 11 -13 -14 -15 -16
leaf_value=-5.2515346908569338 -4.6620888177156443 12.130019550938762 8.5586540676298597 -8.6917804827008922 1.1433474588394166 3.5268796693194995 9.6388480244260855 4.8243977639986122 -12.872660305189051 -5.4398329085492074 -0.78330339305282215 6.4743351890927272 0.35902250528335578 5.5426216579618917 6.2997337102890016
leaf_weight=20 25 31 21 35 35 44 33 23 23 47 623 21 20 21 20
leaf_count=20 25 31 21 35 35 44 33 23 23 47 623 21 20 21 20
internal_value=-1.84849e-08 3.71331 -0.447194 -0.65525 0.492099 -0.333421 3.01687 -0.638754 -3.4786 -1.10428 -0.167513 -0.546641 -2.44626 2.79308 5.5106
internal_weight=1042 112 930 909 81 874 73 801 114 91 687 644 40 56 43
internal_count=1042 112 930 909 81 874 73 801 114 91 687 644 40 56 43
is_linear=0
shrinkage=0.1


Tree=47
num_leaves=14
num_cat=0
split_feature=8 7 2 1 1 1 1 1 5 8 9 1 1
split_gain=157567 108321 193384 136845 179731 173461 292586 231493 218224 125795 36439.5 28865.2 11569.5
threshold=1.9557668418293392 0.65142244318301656 0.72761233613318432 1.5327307640059844 1.5212655829327344 1.1085190642957412 0.89068062390399472 0.94227393873361887 -0.26884006919831888 -1.3805839635272721 -0.31295412808786766 1.3550204573706122 -0.71157843108266661
decision_type=2 2 2 2 2 2 2 2 2 2 2 2 2
left_child=1 3 -3 4 5 6 9 -8 11 -1 -5 -7 -2
right_child=12 2 -4 10 -6 8 7 -9 -10 -11 -12 -13 -14
leaf_value=7.2423444795608525 7.8553308928012857 -2.8422376424074174 8.9551450902765453 -3.0656942812601726 7.0372076236840462 -3.8297434848897596 13.309475551332747 1.1859559532565376 -12.756424015760423 -0.80439845476524463 -8.2934712568918876 0.20649213613690556 4.4539386960864062
leaf_weight=20 20 24 33 30 33 34 28 36 24 679 24 37 20
leaf_count=20 20 24 33 30 33 34 28 36 24 679 24 37 20
internal_value=1.15645e-08 -0.245694 3.98783 -0.501049 -0.204801 -0.483339 0.0183749 6.49 -4.5129 -0.574163 -5.38915 -1.72635 6.15463
internal_weight=1042 1002 57 945 891 858 763 64 95 699 54 71 40
internal_count=1042 1002 57 945 891 858 763 64 95 699 54 71 40
is_linear=0
shrinkage=0.1


Tree=48
num_leaves=11
num_cat=0
split_feature=0 4 6 6 11 11 2 0 3 8
split_gain=140236 678110 142048 170510 78736.3 77496.4 99921.1 143946 73230.4 44563.8
threshold=1.4661489351999031 0.4912399465362674 2.0673012152722192 1.6016344550063999 3.2629511917909144 2.2962619365773933 -1.6946625975753717 1.0000000180025095e-35 -0.71608464348926304 -1.0057130865209112
decision_type=2 2 2 2 2 2 2 2 2 2
left_child=2 9 3 4 5 6 7 -1 -8 -2
right_child=1 -3 -4 -5 -6 -7 8 -9 -10 -11
leaf_value=-1.477249985763005 -5.7354257674444291 19.802601137161258 6.9957869309645435 -7.1512035936922649 5.3079883079528809 -6.1114510826442556 -2.9321647022451676 7.254096906650358 -0.17228656234452844 0.63610608525898149
leaf_weight=35 21 20 26 37 25 23 112 41 679 23
leaf_count=35 21 20 26 37 25 23 112 41 679 23
internal_value=-1.64953e-08 4.53498 -0.296767 -0.495934 -0.226814 -0.382286 -0.230301 3.23308 -0.563066 -2.40485
internal_weight=1042 64 978 952 915 890 867 76 791 44
internal_count=1042 64 978 952 915 890 867 76 791 44
is_linear=0
shrinkage=0.1


Tree=49
num_leaves=16
num_cat=0
